\data\
ngram 1=1548
ngram 2=5811
ngram 3=7142

\1-grams:
-3.8535447	<unk>	0
0	<s>	-0.5683025
-1.0368764	</s>	0
-2.6572146	some	-0.09152128
-3.7111647	mornings	-0.09152128
-1.884611	i	-0.27489734
-3.5039	wake	-0.23127234
-2.2757723	up	-0.25524175
-3.3178875	crying	-0.09152128
-3.0834732	without	-0.091521315
-3.7111647	knowing	-0.09152128
-2.6925573	why	-0.17890687
-2.4902112	thats	-0.16481422
-2.4676979	when	-0.28545415
-3.3178875	everything	-0.09152128
-3.5039	happens	-0.09152128
-2.4902112	now	-0.37965104
-1.884611	and	-0.14519222
-2.932069	again	-0.30334488
-3.3178875	whatever	-0.09152128
-1.8515247	that	-0.2136672
-3.0012064	dream	-0.12707967
-2.5139558	was	-0.14571643
-2.8724415	had	-0.124616325
-2.820021	can	-0.14440398
-2.5941393	never	-0.13588703
-2.8724415	remember	-0.19530763
-1.8789186	it	-0.24004427
-2.4676979	but	-0.19212261
-1.7236688	the	-0.18880007
-2.8724415	only	-0.091521315
-2.932069	thing	-0.09152125
-2.731033	does	-0.15001774
-3.1850529	last	-0.09152128
-2.1754766	is	-0.22480217
-1.884611	a	-0.16129343
-3.7111647	sense	-0.09152128
-1.8358812	of	-0.26952145
-3.7111647	loss	-0.09152128
-3.5039	which	-0.09152128
-3.7111647	lingers	-0.09152128
-2.049964	for	-0.22552788
-3.0012064	long	-0.13329974
-2.4462943	time	-0.22037603
-3.7111647	afterwards	-0.09152128
-2.4902112	im	-0.16896398
-3.0012064	always	-0.12707967
-3.1850529	searching	-0.32628638
-2.6925573	something	-0.12947667
-2.5941393	or	-0.10428552
-2.8724415	someone	-0.11381005
-2.820021	ive	-0.21061458
-2.624533	been	-0.111908354
-3.5039	consumed	-0.09152128
-3.1850529	by	-0.09152128
-2.1644237	this	-0.16377625
-3.1850529	feeling	-0.19949292
-3.0834732	ever	-0.091521315
-3.3178875	since	-0.09152128
-2.8724415	day	-0.19323003
-3.7111647	star	-0.09152128
-3.5039	fell	-0.09152128
-3.3178875	almost	-0.09152128
-2.3527174	like	-0.18501575
-3.5039	seeing	-0.09152128
-2.4902112	out	-0.22279145
-3.5039	nothing	-0.09152128
-2.7732518	more	-0.09152128
-3.7111647	less	-0.09152128
-3.3178875	than	-0.17952915
-3.7111647	breathtaking	-0.09152128
-3.1850529	view	-0.19808239
-3.5039	ah	-0.12247233
-2.5139558	if	-0.28327855
-2.5139558	our	-0.103638336
-3.7111647	voices	-0.09152128
-3.7111647	speak	-0.09152128
-2.3049357	at	-0.20660305
-3.3178875	night	-0.17952915
-2.731033	could	-0.16922188
-3.0834732	reach	-0.091521315
-3.7111647	very	-0.09152128
-3.7111647	edge	-0.09152128
-3.0834732	world	-0.34421042
-3.7111647	instead	-0.09152128
-3.5039	fading	-0.09152128
-3.5039	into	-0.09152128
-3.7111647	air	-0.09152128
-3.7111647	dust	-0.09152128
-3.0012064	then	-0.19323003
-2.2354	what	-0.25733182
-2.5657346	will	-0.15137132
-3.1850529	words	-0.09152128
-2.3527174	be	-0.13798045
-3.7111647	farthest	-0.09152128
-2.5139558	from	-0.15295668
-3.3178875	probably	-0.09152128
-3.0012064	lets	-0.1552676
-2.624533	make	-0.19897218
-3.3178875	promise	-0.09152128
-3.3178875	fade	-0.17952915
-3.0012064	say	-0.12707967
-3.1850529	together	-0.09152128
-2.1754766	on	-0.20085458
-3.7111647	count	-0.09152128
-2.820021	three	-0.3611729
-2.6925573	oh	-0.15789737
-3.0834732	told	-0.14216028
-3.3178875	part	-0.28713405
-2.932069	every	-0.09152125
-3.3178875	wish	-0.09152128
-3.7111647	heard	-0.09152128
-3.0834732	lately	-0.14216028
-2.8724415	lost	-0.15500186
-3.7111647	sight	-0.09152128
-3.7111647	truth	-0.09152128
-2.03351	in	-0.2795539
-3.0012064	those	-0.19103171
-3.0012064	cant	-0.111908354
-2.624533	even	-0.12679501
-3.3178875	gave	-0.09152128
-3.7111647	believing	-0.09152128
-2.336199	have	-0.27614725
-3.3178875	reason	-0.19808239
-3.7111647	moment	-0.09152128
-3.7111647	rain	-0.09152128
-3.3178875	stop	-0.09152128
-3.5039	place	-0.091521315
-3.7111647	rainbow	-0.09152128
-3.5039	born	-0.23127234
-3.7111647	dies	-0.09152128
-2.624533	where	-0.1418509
-3.3178875	end	-0.14216028
-3.0834732	life	-0.30334488
-3.5039	lies	-0.09152128
-3.7111647	insisting	-0.09152128
-2.5657346	there	-0.24441017
-3.7111647	longing	-0.09152128
-2.4462943	one	-0.14816934
-2.624533	well	-0.15651986
-1.8622758	to	-0.25312123
-3.7111647	emotions	-0.09152128
-3.7111647	unexplored	-0.09152128
-3.7111647	unprecedented	-0.09152128
-3.0012064	high	-0.30334488
-3.1850529	five	-0.09152128
-3.1850529	love	-0.15579963
-3.5039	weve	-0.09152128
-3.1850529	yet	-0.22937635
-3.7111647	discover	-0.09152128
-3.5039	give	-0.09152128
-3.7111647	kiss	-0.09152128
-3.7111647	dimensions	-0.09152128
-3.5039	keeps	-0.09152128
-3.7111647	teasing	-0.09152128
-2.2484448	me	-0.2892937
-3.1850529	keep	-0.09152128
-3.0834732	looking	-0.14216028
-1.7565249	you	-0.25240782
-3.5039	dear	-0.23127234
-3.7111647	sign	-0.09152128
-2.2354	we	-0.21239017
-2.932069	nice	-0.091521315
-3.3178875	meet	-0.09152128
-2.2901092	my	-0.11190832
-2.624533	way	-0.16833499
-3.7111647	chasing	-0.09152128
-2.8724415	after	-0.11610313
-2.1644237	your	-0.17535591
-3.0834732	name	-0.22937635
-2.5657346	taki	-0.2794018
-2.7732518	dont	-0.14874075
-2.4902112	mitsuha	-0.38452327
-3.1850529	sis	-0.32628638
-2.336199	are	-0.19844475
-3.1850529	doing	-0.16487823
-3.3178875	whoa	-0.09152128
-3.1850529	theyre	-0.09152125
-2.320286	so	-0.13606422
-3.7111647	realistic	-0.09152128
-2.8724415	still	-0.11610313
-3.7111647	asleep	-0.09152128
-3.3178875	breakfast	-0.09152128
-3.5039	hurry	-0.09152128
-2.5657346	huh	-0.4425717
-3.1850529	wha	-0.17878018
-3.7111647	whaaat	-0.09152128
-2.4258964	do	-0.2580125
-3.0012064	wanna	-0.11892235
-3.1850529	any	-0.091521315
-3.7111647	nights	-0.09152128
-3.7111647	fish	-0.09152128
-2.932069	grandma	-0.25191188
-3.5039	eat	-0.09152128
-3.0834732	mornin	-0.15500186
-3.7111647	lazy	-0.09152128
-3.7111647	butt	-0.09152128
-2.4676979	youre	-0.1613365
-3.7111647	slow	-0.09152128
-2.7732518	ill	-0.11892235
-3.7111647	fix	-0.09152128
-3.1850529	tomorrow	-0.15579963
-3.7111647	lot	-0.09152128
-2.731033	back	-0.29632318
-3.7111647	normal	-0.09152128
-2.4462943	today	-0.29604045
-2.4676979	were	-0.1371194
-3.3178875	crazy	-0.09152128
-2.932069	yesterday	-0.12707967
-3.0012064	mean	-0.14154169
-3.7111647	attention	-0.09152128
-3.7111647	citizens	-0.09152128
-2.820021	itomori	-0.19002968
-3.0834732	good	-0.09152125
-3.7111647	morning	-0.09152128
-2.6925573	an	-0.12993938
-3.7111647	official	-0.09152128
-3.5039	announcement	-0.09152128
-2.731033	town	-0.14466852
-3.7111647	hall	-0.09152128
-3.7111647	regards	-0.09152128
-3.7111647	mayoral	-0.09152128
-3.3178875	election	-0.091521315
-3.7111647	held	-0.09152128
-3.7111647	twentieth	-0.09152128
-3.0834732	next	-0.091521315
-3.1850529	month	-0.15579963
-3.7111647	committee	-0.09152128
-2.820021	would	-0.1600127
-3.5039	remind	-0.09152128
-2.8724415	everyone	-0.11610313
-3.7111647	tha	-0.09152128
-3.0834732	comet	-0.1600127
-3.7111647	comes	-0.09152128
-2.8724415	once	-0.11892235
-3.3178875	twelve	-0.17952915
-3.1850529	hundred	-0.14216028
-3.1850529	years	-0.26530123
-3.1850529	finally	-0.091521315
-3.7111647	headed	-0.09152128
-3.5039	visible	-0.17952915
-3.7111647	naked	-0.09152128
-3.5039	eye	-0.09152128
-3.7111647	several	-0.09152128
-3.1850529	days	-0.091521315
-3.7111647	approaches	-0.09152128
-3.3178875	earth	-0.15579963
-2.3049357	just	-0.20423041
-2.336199	with	-0.2070256
-3.0834732	him	-0.14216028
-3.0834732	already	-0.091521315
-3.0012064	okay	-0.30334488
-3.7111647	adult	-0.09152128
-3.3178875	matter	-0.091521315
-3.5039	according	-0.23127234
-3.7111647	jaxas	-0.09152128
-3.7111647	spokesperson	-0.09152128
-3.7111647	preparing	-0.09152128
-3.7111647	celestial	-0.09152128
-3.5039	show	-0.09152128
-3.7111647	millennium	-0.09152128
-3.5039	leaving	-0.09152128
-2.8724415	wait	-0.10893664
-3.5039	til	-0.09152128
-3.3178875	festival	-0.14216028
-2.186818	its	-0.14124759
-2.6925573	gonna	-0.15174343
-3.1850529	much	-0.09152128
-3.3178875	fun	-0.09152128
-3.5039	study	-0.09152128
-3.7111647	hard	-0.09152128
-3.1850529	saya	-0.09152128
-2.820021	teshi	-0.24218424
-2.8724415	come	-0.19323003
-2.5941393	get	-0.11892235
-2.8724415	off	-0.09152128
-3.7111647	meanie	-0.09152128
-2.932069	cause	-0.11610313
-3.7111647	heavy	-0.09152128
-3.0012064	hey	-0.16320515
-3.7111647	rude	-0.09152128
-3.1850529	yknow	-0.091521315
-3.0012064	gotta	-0.14154169
-2.731033	two	-0.12947667
-3.1850529	great	-0.09152128
-3.7111647	couple	-0.09152128
-2.5657346	no	-0.18866734
-2.6925573	see	-0.19357832
-3.1850529	actually	-0.09152128
-3.7111647	bothered	-0.09152128
-3.7111647	hair	-0.09152128
-2.932069	yeah	-0.13552828
-3.0834732	happened	-0.13329974
-2.6572146	did	-0.2525013
-3.5039	exorcise	-0.09152128
-2.2354	all	-0.20079507
-3.7111647	demons	-0.09152128
-3.1850529	somethin	-0.09152128
-3.3178875	totally	-0.09152128
-3.7111647	possessed	-0.09152128
-3.5039	body	-0.17952915
-3.5039	rest	-0.09152128
-3.7111647	occult	-0.09152128
-3.5039	nonsense	-0.23127234
-3.5039	mitsuhas	-0.09152128
-3.3178875	feelin	-0.17952915
-3.7111647	stressed	-0.09152128
-3.0834732	enough	-0.091521315
-2.5657346	as	-0.12024292
-2.3698888	right	-0.35472986
-2.932069	guys	-0.13730484
-3.3178875	talking	-0.28713405
-2.4902112	about	-0.16506739
-3.7111647	above	-0.09152128
-3.7111647	restoring	-0.09152128
-3.5039	towns	-0.09152128
-3.7111647	fiscal	-0.09152128
-3.7111647	health	-0.09152128
-3.5039	continue	-0.09152128
-3.7111647	revitalization	-0.09152128
-3.7111647	project	-0.09152128
-3.0834732	these	-0.091521315
-3.0012064	things	-0.09152125
-3.7111647	achieved	-0.09152128
-3.7111647	create	-0.09152128
-3.5039	safe	-0.09152128
-3.7111647	secure	-0.09152128
-3.7111647	community	-0.09152128
-3.7111647	incumbent	-0.09152128
-3.7111647	administration	-0.09152128
-3.7111647	miyamizus	-0.09152128
-3.3178875	another	-0.09152128
-3.3178875	term	-0.09152128
-3.5039	anyway	-0.23127234
-3.5039	hear	-0.09152128
-2.932069	hes	-0.1367487
-3.7111647	dullin	-0.09152128
-3.7111647	pork	-0.09152128
-3.1850529	between	-0.15579963
-2.820021	us	-0.20615436
-2.932069	miyamizu	-0.12247233
-3.3178875	looks	-0.22937635
-3.5039	mayor	-0.091521315
-3.7111647	contractors	-0.09152128
-3.7111647	kid	-0.09152128
-2.8724415	pretty	-0.09152128
-3.7111647	cozy	-0.09152128
-2.5941393	too	-0.2196533
-3.7111647	improve	-0.09152128
-3.7111647	quality	-0.09152128
-3.1850529	each	-0.15579963
-3.7111647	resident	-0.09152128
-3.1850529	stand	-0.091521315
-3.5039	straight	-0.09152128
-3.7111647	walking	-0.09152128
-3.7111647	tough	-0.09152128
-3.3178875	his	-0.09152128
-3.7111647	family	-0.09152128
-2.932069	ya	-0.12707967
-3.5039	awkward	-0.09152128
-3.7111647	sucks	-0.09152128
-2.539074	her	-0.21201332
-3.7111647	front	-0.09152128
-3.5039	light	-0.09152128
-3.7111647	origin	-0.09152128
-3.1850529	word	-0.09152128
-3.7111647	twilight	-0.09152128
-2.731033	sure	-0.14556785
-2.320286	here	-0.26703358
-3.7111647	knows	-0.09152128
-3.5039	dusk	-0.09152128
-3.7111647	neither	-0.09152128
-3.7111647	nor	-0.09152128
-3.7111647	border	-0.09152128
-3.5039	worlds	-0.09152128
-3.7111647	blur	-0.09152128
-3.3178875	might	-0.09152128
-3.7111647	encounter	-0.09152128
-2.6572146	not	-0.11381005
-3.7111647	human	-0.09152128
-3.7111647	older	-0.09152128
-2.820021	people	-0.09152128
-3.0834732	also	-0.091521315
-3.0012064	call	-0.17840613
-3.5039	golden	-0.23127234
-3.3178875	hour	-0.12247233
-3.0012064	magic	-0.5881641
-3.5039	says	-0.09152128
-3.7111647	technically	-0.09152128
-3.5039	same	-0.09152128
-3.7111647	mostly	-0.09152128
-3.7111647	photographers	-0.09152128
-3.1850529	use	-0.09152128
-2.624533	she	-0.12247233
-2.7732518	take	-0.23462273
-3.7111647	pictures	-0.09152128
-2.539074	uh	-0.26641807
-3.1850529	yes	-0.091521315
-3.1850529	own	-0.12707967
-3.0834732	believe	-0.091521315
-3.7111647	forgot	-0.09152128
-3.7111647	desk	-0.09152128
-3.7111647	locker	-0.09152128
-3.5039	plus	-0.09152128
-3.7111647	worst	-0.09152128
-3.7111647	case	-0.09152128
-3.7111647	bedhead	-0.09152128
-3.0012064	didnt	-0.12993938
-3.7111647	ribbon	-0.09152128
-3.1850529	either	-0.22937635
-3.7111647	amnesia	-0.09152128
-3.7111647	mention	-0.09152128
-3.0834732	feel	-0.2228702
-3.7111647	havin	-0.09152128
-3.0834732	weird	-0.091521315
-2.932069	dreams	-0.12247233
-3.7111647	elses	-0.09152128
-3.7111647	fuzzy	-0.09152128
-3.7111647	sec	-0.09152128
-2.731033	got	-0.20615436
-3.1850529	memories	-0.09152128
-3.7111647	previous	-0.09152128
-2.932069	maybe	-0.11381005
-3.7111647	subconscious	-0.09152128
-3.7111647	linked	-0.09152128
-3.7111647	everett	-0.09152128
-3.7111647	interpretation	-0.09152128
-3.7111647	multiverse	-0.09152128
-3.3178875	full	-0.17952915
-3.7111647	mouth	-0.09152128
-3.5039	shut	-0.09152128
-3.7111647	minute	-0.09152128
-3.0012064	tell	-0.15500186
-2.6925573	who	-0.14216028
-3.5039	wrote	-0.09152128
-3.7111647	noteboo	-0.09152128
-3.3178875	k	-0.17952915
-3.0834732	forget	-0.17840613
-2.4902112	really	-0.12361144
-3.7111647	actin	-0.09152128
-3.7111647	little	-0.091521315
-3.3178875	funny	-0.17952915
-2.820021	whats	-0.1653444
-3.1850529	fine	-0.22937635
-3.7111647	stress	-0.09152128
-2.820021	know	-0.17619489
-2.820021	youve	-0.19808239
-3.7111647	ritual	-0.09152128
-3.3178875	comin	-0.09152128
-3.3178875	soon	-0.09152128
-3.7111647	dontcha	-0.09152128
-3.7111647	ugh	-0.091521315
-3.3178875	anymore	-0.17952915
-3.5039	small	-0.09152128
-3.7111647	ey	-0.09152128
-3.5039	graduate	-0.09152128
-2.5941393	go	-0.25548503
-3.1850529	tokyo	-0.12993938
-3.7111647	blame	-0.09152128
-3.7111647	nothin	-0.09152128
-3.0012064	theres	-0.15500186
-3.7111647	train	-0.09152128
-3.7111647	stops	-0.09152128
-3.5039	hours	-0.09152128
-3.7111647	stores	-0.09152128
-3.1850529	close	-0.09152128
-3.5039	nine	-0.09152128
-3.7111647	o	-0.09152128
-3.5039	clock	-0.23127234
-3.7111647	bookstores	-0.09152128
-3.7111647	dentists	-0.09152128
-3.7111647	cocktail	-0.09152128
-3.7111647	lounges	-0.09152128
-3.7111647	jobs	-0.09152128
-3.0012064	date	-0.15500186
-3.3178875	able	-0.17952915
-3.5039	short	-0.23127234
-3.3178875	stuff	-0.09152128
-3.3178875	cafe	-0.091521315
-3.3178875	hello	-0.09152128
-3.5039	kids	-0.09152128
-3.7111647	hi	-0.09152128
-3.7111647	evenin	-0.09152128
-3.7111647	maam	-0.09152128
-2.820021	how	-0.111908354
-3.0012064	went	-0.16581108
-3.1850529	home	-0.15579963
-3.7111647	rough	-0.09152128
-2.7732518	shes	-0.09152128
-3.5039	center	-0.09152128
-3.7111647	stage	-0.09152128
-3.0834732	hm	-0.19808239
-3.0012064	school	-0.20929937
-3.7111647	whered	-0.09152128
-3.7111647	talkin	-0.09152128
-3.3178875	future	-0.09152128
-3.7111647	mh	-0.09152128
-3.7111647	dunno	-0.09152128
-2.8724415	think	-0.124616325
-3.7111647	livin	-0.09152128
-3.5039	doin	-0.09152128
-3.5039	try	-0.09152128
-3.0834732	yotsuha	-0.13329974
-3.3178875	listen	-0.19808239
-3.5039	threads	-0.09152128
-3.5039	voice	-0.09152128
-3.7111647	twine	-0.09152128
-3.3178875	round	-0.09152128
-3.5039	feelings	-0.09152128
-3.7111647	start	-0.09152128
-3.7111647	flowing	-0.09152128
-3.7111647	thread	-0.09152128
-3.3178875	talk	-0.09152128
-3.5039	telling	-0.09152128
-3.7111647	focus	-0.09152128
-3.7111647	etched	-0.09152128
-3.5039	within	-0.09152128
-3.3178875	braided	-0.28713405
-3.3178875	cords	-0.14216028
-3.7111647	thousand	-0.09152128
-3.7111647	worth	-0.09152128
-3.7111647	itomoris	-0.09152128
-3.7111647	history	-0.09152128
-3.1850529	ago	-0.12707967
-3.5039	goes	-0.09152128
-3.7111647	bathroom	-0.09152128
-3.7111647	sandal	-0.09152128
-3.7111647	maker	-0.09152128
-3.1850529	mayugoro	-0.09152128
-3.7111647	yamazaki	-0.09152128
-3.7111647	caught	-0.09152128
-3.1850529	fire	-0.09152128
-3.3178875	whole	-0.091521315
-3.0834732	area	-0.09152128
-3.7111647	burned	-0.09152128
-3.0834732	down	-0.091521315
-3.0834732	shrine	-0.12247233
-3.5039	old	-0.09152128
-3.7111647	documents	-0.09152128
-3.5039	destroyed	-0.09152128
-3.7111647	known	-0.09152128
-3.7111647	mayugoros	-0.09152128
-2.820021	they	-0.10672112
-3.7111647	named	-0.09152128
-3.0834732	bad	-0.09152125
-3.3178875	meaning	-0.17952915
-3.5039	behind	-0.09152128
-3.7111647	festivals	-0.09152128
-3.1850529	because	-0.12707967
-3.7111647	surface	-0.09152128
-3.3178875	left	-0.17952915
-3.5039	gone	-0.09152128
-3.0834732	shouldnt	-0.09152125
-3.7111647	shrines	-0.09152128
-3.5039	duty	-0.09152128
-3.3178875	important	-0.09152128
-3.7111647	task	-0.09152128
-3.7111647	despite	-0.09152128
-3.5039	son	-0.09152128
-3.7111647	law	-0.09152128
-3.5039	mine	-0.23127234
-3.7111647	abandoning	-0.09152128
-3.5039	shinto	-0.09152128
-3.7111647	priesthood	-0.09152128
-3.5039	house	-0.09152128
-3.7111647	politics	-0.09152128
-3.7111647	hopeless	-0.09152128
-3.5039	mister	-0.09152128
-3.7111647	foreman	-0.09152128
-3.5039	counting	-0.23127234
-3.0012064	help	-0.12247233
-3.3178875	leave	-0.14216028
-3.0834732	youll	-0.12707967
-3.7111647	votes	-0.09152128
-3.5039	kadoiri	-0.09152128
-3.5039	sakagami	-0.09152128
-3.7111647	districts	-0.09152128
-3.7111647	guaranteed	-0.09152128
-3.7111647	hows	-0.09152128
-3.7111647	datin	-0.09152128
-3.5039	scene	-0.09152128
-3.7111647	aint	-0.09152128
-3.5039	easy	-0.09152128
-3.7111647	smells	-0.09152128
-3.7111647	corruption	-0.09152128
-3.5039	need	-0.09152128
-3.7111647	bottles	-0.09152128
-3.7111647	katsuhiko	-0.09152128
-3.3178875	site	-0.09152128
-3.7111647	weekend	-0.09152128
-3.7111647	usin	-0.09152128
-3.3178875	explosives	-0.09152128
-3.5039	better	-0.091521315
-3.7111647	grngh	-0.09152128
-3.0012064	guess	-0.11381005
-3.3178875	both	-0.09152128
-3.7111647	grown	-0.09152128
-3.7111647	lookers	-0.09152128
-3.1850529	alright	-0.09152128
-3.3178875	their	-0.09152128
-3.5039	mother	-0.23127234
-3.7111647	heya	-0.09152128
-3.7111647	oldest	-0.09152128
-3.0012064	kind	-0.4054676
-3.1850529	sake	-0.15579963
-3.7111647	chewin	-0.09152128
-3.5039	rice	-0.09152128
-3.7111647	spittin	-0.09152128
-3.7111647	lettin	-0.09152128
-3.7111647	ferment	-0.09152128
-3.7111647	naturally	-0.09152128
-3.5039	becomes	-0.09152128
-3.7111647	alcohol	-0.09152128
-3.1850529	kuchikamizake	-0.22937635
-3.5039	gods	-0.09152128
-3.7111647	appreciate	-0.09152128
-3.7111647	ma	-0.09152128
-3.5039	course	-0.09152128
-3.7111647	check	-0.09152128
-3.5039	id	-0.09152128
-3.5039	everybody	-0.09152128
-3.7111647	embarrassing	-0.09152128
-3.0012064	should	-0.11892235
-3.7111647	cheer	-0.09152128
-3.7111647	cares	-0.09152128
-3.5039	few	-0.09152128
-3.3178875	saw	-0.091521315
-3.1850529	must	-0.22937635
-3.7111647	being	-0.09152128
-3.7111647	teenager	-0.09152128
-3.5039	sell	-0.09152128
-3.7111647	move	-0.09152128
-3.7111647	bet	-0.09152128
-3.7111647	sorts	-0.09152128
-3.7111647	photos	-0.09152128
-3.3178875	making	-0.09152128
-3.7111647	videos	-0.09152128
-3.7111647	maidens	-0.09152128
-3.7111647	buttloads	-0.09152128
-3.7111647	liquor	-0.09152128
-3.7111647	laws	-0.09152128
-3.5039	problem	-0.17952915
-3.7111647	hate	-0.09152128
-3.0012064	please	-0.13329974
-3.7111647	handsome	-0.09152128
-3.5039	boy	-0.09152128
-3.7111647	jackass	-0.09152128
-3.7111647	ow	-0.09152128
-3.7111647	hmm	-0.09152128
-3.7111647	somethings	-0.09152128
-3.7111647	aaaah	-0.09152128
-3.7111647	eh	-0.09152128
-3.5039	turn	-0.09152128
-3.7111647	cook	-0.09152128
-3.3178875	wasnt	-0.09152128
-3.5039	sleep	-0.09152128
-2.8724415	sorry	-0.19530763
-3.7111647	heading	-0.09152128
-3.7111647	finish	-0.09152128
-3.7111647	miso	-0.09152128
-3.1850529	late	-0.13329974
-3.3178875	seeya	-0.17952915
-3.7111647	h	-0.09152128
-3.0834732	strange	-0.091521315
-3.0834732	tsukasa	-0.09152128
-3.3178875	whos	-0.09152128
-3.7111647	hrm	-0.09152128
-3.7111647	uhhh	-0.09152128
-3.7111647	pee	-0.09152128
-3.1850529	real	-0.17840613
-3.7111647	daikanyama	-0.09152128
-3.7111647	opening	-0.09152128
-3.5039	gig	-0.09152128
-3.5039	w	-0.23127234
-3.7111647	skip	-0.09152128
-3.5039	club	-0.09152128
-3.7111647	catch	-0.09152128
-3.7111647	movie	-0.09152128
-3.7111647	taaaki	-0.09152128
-3.7111647	noon	-0.09152128
-3.7111647	grab	-0.09152128
-3.5039	lunch	-0.23127234
-3.7111647	ignored	-0.09152128
-3.7111647	text	-0.09152128
-3.7111647	mr	-0.09152128
-3.0834732	far	-0.13329974
-3.5039	second	-0.09152128
-3.5039	howd	-0.09152128
-3.5039	wind	-0.09152128
-3.5039	getting	-0.09152128
-3.0012064	girl	-0.20615436
-3.7111647	gal	-0.09152128
-3.0012064	guy	-0.12707967
-3.0834732	living	-0.32628638
-3.3178875	sound	-0.09152128
-3.7111647	wheres	-0.09152128
-3.5039	seriously	-0.09152128
-3.7111647	share	-0.09152128
-3.7111647	croquette	-0.09152128
-3.7111647	egg	-0.09152128
-3.7111647	sandwich	-0.09152128
-3.7111647	hahahaha	-0.09152128
-3.0834732	thank	-0.32628638
-3.5039	hit	-0.09152128
-3.1850529	later	-0.22937635
-3.5039	theyve	-0.17952915
-3.7111647	timberwork	-0.09152128
-3.7111647	intricate	-0.09152128
-3.7111647	set	-0.09152128
-3.5039	live	-0.09152128
-3.7111647	pancakes	-0.09152128
-3.7111647	cost	-0.09152128
-3.7111647	decade	-0.09152128
-3.7111647	hmmm	-0.09152128
-3.0012064	work	-0.34421042
-3.3178875	shift	-0.09152128
-2.8724415	goin	-0.14816943
-3.3178875	exactly	-0.09152128
-3.7111647	tables	-0.09152128
-3.7111647	six	-0.09152128
-3.5039	seven	-0.09152128
-3.7111647	ten	-0.09152128
-3.5039	waiting	-0.09152128
-3.7111647	table	-0.09152128
-3.7111647	zucchini	-0.09152128
-3.7111647	tomato	-0.09152128
-3.7111647	salad	-0.09152128
-3.0834732	side	-0.091521315
-3.5039	order	-0.09152128
-3.7111647	truffles	-0.09152128
-3.7111647	louder	-0.09152128
-3.7111647	nightmare	-0.09152128
-2.820021	over	-0.2529931
-3.7111647	waiter	-0.09152128
-2.820021	look	-0.13279457
-3.5039	toothpicks	-0.09152128
-3.7111647	ate	-0.09152128
-3.5039	lucky	-0.09152128
-3.7111647	noticed	-0.09152128
-3.7111647	excuse	-0.09152128
-3.1850529	trying	-0.22937635
-3.5039	care	-0.09152128
-3.1850529	wrong	-0.09152128
-3.7111647	truly	-0.09152128
-3.7111647	apologize	-0.09152128
-3.7111647	meal	-0.09152128
-2.932069	tonight	-0.19103171
-3.5039	werent	-0.09152128
-3.7111647	hurt	-0.09152128
-3.7111647	oku	-0.09152128
-3.7111647	dera	-0.09152128
-3.5039	miss	-0.09152128
-3.3178875	okudera	-0.09152125
-2.6925573	before	-0.19484147
-3.3178875	luck	-0.09152128
-3.3178875	definitely	-0.09152128
-3.7111647	scamming	-0.09152128
-3.7111647	handled	-0.09152128
-3.7111647	manual	-0.09152128
-3.1850529	ms	-0.41207278
-3.5039	skirt	-0.23127234
-3.3178875	happen	-0.17952915
-3.7111647	cut	-0.09152128
-2.820021	he	-0.14154169
-3.5039	looked	-0.09152128
-3.5039	n	-0.09152128
-3.7111647	wh	-0.09152128
-3.5039	other	-0.15579963
-3.7111647	hold	-0.09152128
-3.0834732	wont	-0.091521315
-3.3178875	done	-0.09152128
-3.7111647	ta	-0.09152128
-3.7111647	da	-0.09152128
-3.7111647	cuter	-0.09152128
-3.5039	wanted	-0.17952915
-3.7111647	customer	-0.09152128
-3.7111647	earlier	-0.09152128
-3.7111647	honest	-0.09152128
-3.5039	worried	-0.23127234
-3.3178875	arent	-0.09152128
-3.7111647	strong	-0.09152128
-3.7111647	quick	-0.09152128
-3.7111647	pick	-0.09152128
-3.7111647	fight	-0.09152128
-3.7111647	feminine	-0.09152128
-3.7111647	woulda	-0.09152128
-3.7111647	guessed	-0.09152128
-3.7111647	seem	-0.09152128
-3.7111647	journal	-0.09152128
-3.7111647	organized	-0.09152128
-3.7111647	lived	-0.09152128
-3.7111647	unrequited	-0.09152128
-2.8724415	going	-0.28794175
-3.1850529	thanks	-0.14216028
-3.3178875	ha	-0.09152128
-3.7111647	huhah	-0.09152128
-3.5039	messing	-0.23127234
-3.7111647	phone	-0.09152128
-3.1850529	mind	-0.17840613
-3.0834732	kinda	-0.091521315
-3.3178875	cute	-0.09152128
-3.7111647	uhhhhh	-0.09152128
-3.7111647	play	-0.09152128
-3.7111647	dumb	-0.09152128
-3.7111647	bro	-0.09152128
-3.7111647	code	-0.09152128
-3.7111647	walked	-0.09152128
-3.1850529	quit	-0.091521315
-3.7111647	messin	-0.09152128
-3.0834732	around	-0.091521315
-3.7111647	reporting	-0.09152128
-3.7111647	slack	-0.09152128
-3.3178875	touching	-0.17952915
-3.3178875	boobies	-0.09152128
-3.7111647	boobs	-0.09152128
-3.7111647	everyones	-0.09152128
-3.7111647	starin	-0.09152128
-3.7111647	posters	-0.09152128
-3.5039	doesnt	-0.15579963
-3.7111647	wins	-0.09152128
-3.7111647	nothinll	-0.09152128
-3.5039	change	-0.09152128
-3.7111647	cept	-0.09152128
-3.7111647	gets	-0.09152128
-3.7111647	kickback	-0.09152128
-3.7111647	shhh	-0.09152128
-3.5039	somebodys	-0.09152128
-3.7111647	daddys	-0.09152128
-3.7111647	dependent	-0.09152128
-3.7111647	switching	-0.09152128
-3.3178875	places	-0.15579963
-3.7111647	opened	-0.09152128
-3.1850529	eyes	-0.19808239
-3.7111647	angrily	-0.09152128
-3.7111647	best	-0.09152128
-3.7111647	running	-0.09152128
-3.7111647	fastest	-0.09152128
-3.7111647	pace	-0.09152128
-3.7111647	slowly	-0.09152128
-3.7111647	beginning	-0.09152128
-3.5039	realize	-0.09152128
-3.3178875	takis	-0.09152128
-3.1850529	times	-0.091521315
-3.7111647	week	-0.09152128
-3.3178875	suddenly	-0.09152128
-3.7111647	randomly	-0.09152128
-3.3178875	switch	-0.09152128
-3.1850529	somewhere	-0.15579963
-3.7111647	boonies	-0.09152128
-3.7111647	trigger	-0.09152128
-3.7111647	unknown	-0.09152128
-3.7111647	hazy	-0.09152128
-3.7111647	doubt	-0.09152128
-3.7111647	reactions	-0.09152128
-3.7111647	prove	-0.09152128
-3.5039	decided	-0.23127234
-3.7111647	lay	-0.09152128
-3.5039	ground	-0.09152128
-3.5039	rules	-0.09152128
-3.7111647	protect	-0.09152128
-3.7111647	others	-0.09152128
-3.3178875	watch	-0.17952915
-3.7111647	during	-0.09152128
-3.7111647	switches	-0.09152128
-3.7111647	list	-0.09152128
-3.7111647	agreed	-0.09152128
-3.3178875	reports	-0.17952915
-3.7111647	phones	-0.09152128
-3.0834732	through	-0.13329974
-3.7111647	happening	-0.09152128
-3.7111647	cannot	-0.09152128
-3.7111647	zenzenzense	-0.09152128
-3.5039	everywhere	-0.09152128
-3.7111647	followed	-0.09152128
-3.7111647	innocent	-0.09152128
-3.7111647	laughter	-0.09152128
-3.7111647	guided	-0.09152128
-3.7111647	piece	-0.09152128
-3.7111647	disappeared	-0.09152128
-3.7111647	scattered	-0.09152128
-3.7111647	stare	-0.09152128
-3.7111647	basics	-0.09152128
-3.7111647	worked	-0.09152128
-3.5039	money	-0.23127234
-3.7111647	braiding	-0.09152128
-3.7111647	impossible	-0.09152128
-3.7111647	wasting	-0.09152128
-3.7111647	wonder	-0.09152128
-3.7111647	push	-0.09152128
-3.7111647	countless	-0.09152128
-3.7111647	barrier	-0.09152128
-3.7111647	beyond	-0.09152128
-3.7111647	lose	-0.09152128
-3.7111647	beat	-0.09152128
-3.7111647	destiny	-0.09152128
-3.7111647	game	-0.09152128
-3.7111647	follow	-0.09152128
-3.7111647	tea	-0.09152128
-3.7111647	relationships	-0.09152128
-3.7111647	confessing	-0.09152128
-3.7111647	popular	-0.09152128
-3.7111647	yourself	-0.09152128
-3.7111647	girlfriend	-0.09152128
-3.5039	anyone	-0.09152128
-3.3178875	want	-0.15579963
-3.7111647	relationship	-0.09152128
-3.5039	ready	-0.09152128
-3.5039	tiamat	-0.09152128
-2.6925573	has	-0.15001774
-3.7111647	east	-0.09152128
-3.7111647	west	-0.09152128
-3.0834732	point	-0.23000744
-3.7111647	wearin	-0.09152128
-3.7111647	uniform	-0.09152128
-3.5039	relic	-0.09152128
-3.5039	kept	-0.09152128
-3.3178875	away	-0.28713405
-3.7111647	famous	-0.09152128
-3.7111647	hop	-0.09152128
-3.5039	careful	-0.23127234
-3.5039	musubi	-0.23127234
-3.7111647	mu	-0.09152128
-3.7111647	subi	-0.09152128
-3.3178875	used	-0.28713405
-3.7111647	local	-0.09152128
-3.7111647	guardian	-0.09152128
-3.7111647	deity	-0.09152128
-3.5039	means	-0.09152128
-3.5039	union	-0.14216028
-3.7111647	profound	-0.09152128
-3.7111647	tying	-0.09152128
-3.7111647	strings	-0.09152128
-3.7111647	connecting	-0.09152128
-3.7111647	flow	-0.09152128
-3.5039	power	-0.09152128
-3.7111647	tied	-0.09152128
-3.7111647	skill	-0.09152128
-3.5039	god	-0.09152128
-3.5039	represent	-0.23127234
-3.5039	itself	-0.09152128
-3.7111647	assemble	-0.09152128
-3.7111647	shape	-0.09152128
-3.7111647	twist	-0.09152128
-3.5039	tangle	-0.17952915
-3.5039	unravel	-0.17952915
-3.3178875	break	-0.28713405
-3.7111647	reconnect	-0.09152128
-3.7111647	drink	-0.09152128
-3.7111647	whether	-0.09152128
-3.5039	water	-0.09152128
-3.1850529	person	-0.15579963
-3.7111647	joins	-0.09152128
-3.7111647	soul	-0.09152128
-3.7111647	offering	-0.09152128
-3.1850529	such	-0.15579963
-3.7111647	custom	-0.09152128
-3.7111647	connects	-0.09152128
-3.7111647	sacred	-0.09152128
-3.5039	ahead	-0.09152128
-3.7111647	hereafter	-0.09152128
-3.7111647	netherworld	-0.09152128
-3.7111647	return	-0.09152128
-3.3178875	most	-0.17952915
-3.7111647	offer	-0.09152128
-3.7111647	foot	-0.09152128
-3.5039	half	-0.23127234
-3.7111647	wow	-0.09152128
-3.7111647	dreaming	-0.09152128
-3.5039	planned	-0.09152128
-3.5039	agh	-0.23127234
-3.7111647	aah	-0.09152128
-3.7111647	goodness	-0.09152128
-3.1850529	met	-0.09152128
-3.0834732	am	-0.24535294
-3.7111647	grateful	-0.09152128
-3.7111647	enjoy	-0.09152128
-3.5039	first	-0.09152128
-3.7111647	usual	-0.09152128
-3.7111647	spots	-0.09152128
-3.7111647	rate	-0.09152128
-3.7111647	single	-0.09152128
-3.7111647	expensive	-0.09152128
-3.7111647	handpicked	-0.09152128
-3.7111647	links	-0.09152128
-3.7111647	below	-0.09152128
-3.7111647	wallflower	-0.09152128
-3.7111647	different	-0.09152128
-3.7111647	hungry	-0.09152128
-3.5039	dinner	-0.23127234
-3.3178875	u	-0.28713405
-3.7111647	crush	-0.09152128
-3.3178875	else	-0.09152128
-3.7111647	dates	-0.09152128
-3.7111647	weirdo	-0.09152128
-3.5039	itll	-0.23127234
-3.7111647	brightest	-0.09152128
-3.7111647	forward	-0.09152128
-3.7111647	yukata	-0.09152128
-3.7111647	arentcha	-0.09152128
-3.7111647	cross	-0.09152128
-3.7111647	sounded	-0.09152128
-3.7111647	talked	-0.09152128
-3.3178875	broke	-0.09152128
-3.3178875	heart	-0.09152128
-3.7111647	assume	-0.09152128
-2.932069	said	-0.09152128
-3.5039	felt	-0.09152128
-3.5039	cuttin	-0.17952915
-3.3178875	ho	-0.09152128
-3.7111647	number	-0.09152128
-3.5039	currently	-0.09152128
-3.3178875	outside	-0.17952915
-3.7111647	cellular	-0.09152128
-3.7111647	network	-0.09152128
-3.7111647	turned	-0.09152128
-3.7111647	due	-0.09152128
-3.7111647	lousy	-0.09152128
-3.7111647	ended	-0.09152128
-3.7111647	thought	-0.09152128
-3.5039	until	-0.09152128
-3.7111647	cover	-0.09152128
-3.7111647	alibi	-0.09152128
-3.5039	dad	-0.09152128
-3.5039	asked	-0.09152128
-3.7111647	relax	-0.09152128
-3.7111647	takagis	-0.09152128
-3.7111647	gotcha	-0.09152128
-3.7111647	covered	-0.09152128
-3.7111647	owe	-0.09152128
-3.7111647	ignore	-0.09152128
-3.7111647	pull	-0.09152128
-3.7111647	catfish	-0.09152128
-3.7111647	online	-0.09152128
-3.7111647	complicated	-0.09152128
-3.7111647	dating	-0.09152128
-3.7111647	acting	-0.09152128
-3.7111647	awfully	-0.09152128
-3.7111647	fishy	-0.09152128
-3.7111647	keeping	-0.09152128
-3.7111647	babysitter	-0.09152128
-3.7111647	stopped	-0.09152128
-3.7111647	calls	-0.09152128
-3.7111647	connected	-0.09152128
-3.7111647	texts	-0.09152128
-3.3178875	landscape	-0.15579963
-3.5039	clue	-0.09152128
-3.7111647	contact	-0.09152128
-3.7111647	terrible	-0.09152128
-3.7111647	tour	-0.09152128
-3.7111647	guide	-0.09152128
-3.7111647	search	-0.09152128
-3.7111647	aww	-0.09152128
-3.7111647	moved	-0.09152128
-3.7111647	awww	-0.09152128
-3.1850529	havent	-0.09152128
-3.7111647	anything	-0.09152128
-3.5039	takayama	-0.09152128
-3.7111647	ramen	-0.09152128
-3.3178875	let	-0.09152128
-3.7111647	barking	-0.09152128
-3.7111647	tree	-0.09152128
-3.7111647	sketch	-0.09152128
-3.1850529	isnt	-0.15579963
-3.5039	drawn	-0.09152128
-3.7111647	hon	-0.09152128
-3.7111647	takes	-0.09152128
-3.7111647	husband	-0.09152128
-3.7111647	raised	-0.09152128
-3.7111647	nearby	-0.09152128
-3.7111647	confused	-0.09152128
-3.7111647	schoolyard	-0.09152128
-3.7111647	mountains	-0.09152128
-3.5039	disaster	-0.09152128
-3.7111647	hundreds	-0.09152128
-3.0834732	died	-0.19808239
-3.7111647	memos	-0.09152128
-3.7111647	orbital	-0.09152128
-3.7111647	period	-0.09152128
-3.5039	made	-0.09152128
-3.7111647	approach	-0.09152128
-3.7111647	october	-0.09152128
-3.5039	nobody	-0.09152128
-3.5039	foresaw	-0.09152128
-3.3178875	nucleus	-0.09152128
-3.3178875	split	-0.09152128
-3.7111647	perigee	-0.09152128
-3.7111647	fragment	-0.09152128
-3.5039	became	-0.09152128
-3.7111647	meteor	-0.09152128
-3.7111647	struck	-0.09152128
-3.7111647	japan	-0.09152128
-3.7111647	autumn	-0.09152128
-3.5039	impact	-0.09152128
-3.5039	eight	-0.09152128
-3.5039	fourty	-0.09152128
-3.5039	pm	-0.09152128
-3.7111647	gathered	-0.09152128
-3.7111647	third	-0.09152128
-3.7111647	population	-0.09152128
-3.5039	lives	-0.09152128
-3.7111647	teshigawara	-0.09152128
-3.7111647	sayaka	-0.09152128
-3.7111647	weeks	-0.09152128
-3.5039	sounds	-0.09152128
-3.7111647	lively	-0.09152128
-3.7111647	room	-0.09152128
-3.7111647	reading	-0.09152128
-3.5039	articles	-0.09152128
-3.7111647	newspapers	-0.09152128
-3.7111647	magazines	-0.09152128
-3.7111647	random	-0.09152128
-3.5039	seems	-0.09152128
-3.7111647	obsessive	-0.09152128
-3.7111647	smoke	-0.09152128
-3.5039	saying	-0.09152128
-3.7111647	recently	-0.09152128
-3.7111647	nicer	-0.09152128
-3.7111647	frantic	-0.09152128
-3.7111647	although	-0.09152128
-3.7111647	sounding	-0.09152128
-3.7111647	fact	-0.09152128
-3.7111647	remains	-0.09152128
-3.7111647	changed	-0.09152128
-3.7111647	recognized	-0.09152128
-3.7111647	unconsciously	-0.09152128
-3.7111647	remembered	-0.09152128
-3.7111647	news	-0.09152128
-3.7111647	ghost	-0.09152128
-3.7111647	bath	-0.09152128
-3.7111647	um	-0.09152128
-3.7111647	band	-0.09152128
-3.7111647	wrist	-0.09152128
-3.7111647	somebody	-0.09152128
-3.7111647	wear	-0.09152128
-3.7111647	sometimes	-0.09152128
-3.7111647	charm	-0.09152128
-3.7111647	makes	-0.09152128
-3.7111647	connect	-0.09152128
-3.7111647	bento	-0.09152128
-3.7111647	drawing	-0.09152128
-3.1850529	job	-0.15579963
-3.7111647	yotsuhas	-0.09152128
-3.7111647	switched	-0.09152128
-3.7111647	past	-0.09152128
-3.7111647	tangled	-0.09152128
-3.5039	somehow	-0.09152128
-3.7111647	true	-0.09152128
-3.7111647	unraveled	-0.09152128
-3.7111647	chance	-0.09152128
-3.7111647	ngh	-0.09152128
-3.7111647	hh	-0.09152128
-3.5039	names	-0.09152128
-3.7111647	treasures	-0.09152128
-3.7111647	big	-0.09152128
-3.3178875	sister	-0.28713405
-3.7111647	dears	-0.09152128
-3.7111647	mommy	-0.09152128
-3.1850529	coming	-0.09152128
-3.7111647	couldnt	-0.09152128
-3.7111647	ahold	-0.09152128
-3.7111647	charge	-0.09152128
-3.7111647	loved	-0.09152128
-3.7111647	futaba	-0.09152128
-3.7111647	girls	-0.09152128
-3.7111647	starting	-0.09152128
-3.7111647	favor	-0.09152128
-3.5039	strikes	-0.09152128
-3.1850529	run	-0.23127234
-3.5039	alive	-0.23127234
-3.7111647	boo	-0.09152128
-3.7111647	ungh	-0.09152128
-3.7111647	head	-0.09152128
-3.7111647	stargazers	-0.09152128
-3.7111647	maximum	-0.09152128
-3.7111647	brightness	-0.09152128
-3.7111647	viewed	-0.09152128
-3.7111647	earths	-0.09152128
-3.3178875	knew	-0.12707967
-3.7111647	watching	-0.09152128
-3.7111647	behaving	-0.09152128
-3.7111647	stirred	-0.09152128
-3.7111647	young	-0.09152128
-3.0834732	myself	-0.32628638
-3.5039	though	-0.09152128
-3.5039	faded	-0.09152128
-3.7111647	treasure	-0.09152128
-3.7111647	experience	-0.09152128
-3.7111647	eventually	-0.09152128
-3.7111647	similar	-0.09152128
-3.5039	fall	-0.09152128
-3.1850529	die	-0.19808239
-3.5039	nobodys	-0.23127234
-3.7111647	expect	-0.09152128
-3.1850529	them	-0.15579963
-3.7111647	whatd	-0.09152128
-3.7111647	haircut	-0.09152128
-3.7111647	nevermind	-0.09152128
-3.7111647	save	-0.09152128
-3.7111647	sort	-0.09152128
-3.7111647	heh	-0.09152128
-3.3178875	warning	-0.17952915
-3.7111647	system	-0.09152128
-3.7111647	speakers	-0.09152128
-3.7111647	niiiice	-0.09152128
-3.7111647	sittin	-0.09152128
-3.7111647	shyyy	-0.09152128
-3.7111647	proper	-0.09152128
-3.7111647	t	-0.09152128
-3.7111647	hahahahaha	-0.09152128
-3.7111647	gentleman	-0.09152128
-3.7111647	bought	-0.09152128
-3.7111647	snacks	-0.09152128
-3.7111647	heres	-0.09152128
-3.7111647	trouble	-0.09152128
-3.7111647	oughta	-0.09152128
-3.7111647	gettin	-0.09152128
-3.7111647	paid	-0.09152128
-3.7111647	complaining	-0.09152128
-3.7111647	whadcha	-0.09152128
-3.5039	evacuation	-0.09152128
-3.5039	plan	-0.23127234
-3.7111647	bomb	-0.09152128
-3.7111647	gel	-0.09152128
-3.7111647	construction	-0.09152128
-3.7111647	storage	-0.09152128
-3.7111647	startup	-0.09152128
-3.7111647	frequency	-0.09152128
-3.7111647	hijack	-0.09152128
-3.7111647	easily	-0.09152128
-3.3178875	broadcast	-0.09152128
-3.0834732	evacuate	-0.2083379
-3.7111647	crime	-0.09152128
-3.5039	while	-0.09152128
-3.7111647	orders	-0.09152128
-3.7111647	daughter	-0.09152128
-3.3178875	convince	-0.17952915
-3.7111647	perfect	-0.09152128
-3.7111647	theory	-0.09152128
-3.1850529	yours	-0.15579963
-3.5039	theories	-0.09152128
-3.7111647	based	-0.09152128
-3.7111647	reality	-0.09152128
-3.7111647	story	-0.09152128
-3.7111647	lake	-0.09152128
-3.7111647	formed	-0.09152128
-3.7111647	crater	-0.09152128
-3.7111647	least	-0.09152128
-3.7111647	comets	-0.09152128
-3.7111647	strike	-0.09152128
-3.7111647	dare	-0.09152128
-3.7111647	spout	-0.09152128
-3.5039	serious	-0.09152128
-3.7111647	sick	-0.09152128
-3.7111647	recklessness	-0.09152128
-3.7111647	trait	-0.09152128
-3.7111647	car	-0.09152128
-3.7111647	city	-0.09152128
-3.7111647	hospital	-0.09152128
-3.7111647	examination	-0.09152128
-3.7111647	discussion	-0.09152128
-3.5039	seen	-0.09152128
-3.7111647	doctor	-0.09152128
-3.5039	ba	-0.23127234
-3.7111647	bye	-0.09152128
-3.7111647	step	-0.09152128
-3.7111647	stone	-0.09152128
-3.7111647	friends	-0.09152128
-3.7111647	fault	-0.09152128
-3.7111647	dark	-0.09152128
-3.0012064	stay	-0.13329974
-3.7111647	man	-0.09152128
-3.7111647	bike	-0.09152128
-3.7111647	gosh	-0.09152128
-3.7111647	boyfriend	-0.09152128
-3.7111647	nuisance	-0.09152128
-3.7111647	surprise	-0.09152128
-3.7111647	annoy	-0.09152128
-3.7111647	hed	-0.09152128
-3.7111647	glad	-0.09152128
-3.7111647	certain	-0.09152128
-3.7111647	scuse	-0.09152128
-3.5039	yotsuya	-0.09152128
-3.5039	clear	-0.09152128
-3.7111647	doors	-0.09152128
-3.7111647	egh	-0.09152128
-3.7111647	showed	-0.09152128
-3.7111647	inside	-0.09152128
-3.7111647	came	-0.09152128
-3.5039	drank	-0.09152128
-3.7111647	stupid	-0.09152128
-3.7111647	pervert	-0.09152128
-3.5039	many	-0.17952915
-3.7111647	issue	-0.09152128
-3.7111647	visited	-0.09152128
-3.7111647	whaddya	-0.09152128
-3.7111647	lyin	-0.09152128
-3.7111647	busted	-0.09152128
-3.7111647	worry	-0.09152128
-3.7111647	write	-0.09152128
-3.7111647	planning	-0.09152128
-3.7111647	wherever	-0.09152128
-3.7111647	swear	-0.09152128
-3.1850529	find	-0.09152128
-3.7111647	precious	-0.09152128
-3.7111647	heck	-0.09152128
-3.7111647	breakin	-0.09152128
-3.7111647	explain	-0.09152128
-3.7111647	settled	-0.09152128
-3.7111647	officially	-0.09152128
-3.7111647	criminals	-0.09152128
-3.5039	emergency	-0.09152128
-3.7111647	generator	-0.09152128
-3.7111647	kick	-0.09152128
-3.7111647	equipment	-0.09152128
-3.7111647	scared	-0.09152128
-3.7111647	repeat	-0.09152128
-3.7111647	woo	-0.09152128
-3.7111647	hoo	-0.09152128
-3.7111647	aw	-0.09152128
-3.7111647	nuts	-0.09152128
-3.5039	hell	-0.09152128
-3.7111647	oooh	-0.09152128
-3.7111647	loud	-0.09152128
-3.7111647	explosion	-0.09152128
-3.7111647	substation	-0.09152128
-3.5039	wildfires	-0.09152128
-3.7111647	possible	-0.09152128
-3.7111647	threat	-0.09152128
-3.7111647	explosions	-0.09152128
-3.1850529	residents	-0.15579963
-3.7111647	followin	-0.09152128
-3.5039	areas	-0.23127234
-3.5039	immediately	-0.09152128
-3.1850529	district	-0.22937635
-3.7111647	honey	-0.09152128
-3.7111647	miyamori	-0.09152128
-3.7111647	oyazawa	-0.09152128
-3.5039	wildfire	-0.09152128
-3.7111647	outta	-0.09152128
-3.7111647	workin	-0.09152128
-3.7111647	runnin	-0.09152128
-3.7111647	started	-0.09152128
-3.7111647	firefighters	-0.09152128
-3.7111647	terrorists	-0.09152128
-3.7111647	attack	-0.09152128
-3.7111647	chubu	-0.09152128
-3.7111647	electric	-0.09152128
-3.7111647	checking	-0.09152128
-3.7111647	update	-0.09152128
-3.7111647	located	-0.09152128
-3.7111647	source	-0.09152128
-3.7111647	sensor	-0.09152128
-3.7111647	station	-0.09152128
-3.7111647	called	-0.09152128
-3.7111647	following	-0.09152128
-3.7111647	thinking	-0.09152128
-3.7111647	natori	-0.09152128
-3.7111647	confirming	-0.09152128
-3.7111647	accident	-0.09152128
-3.7111647	instruct	-0.09152128
-3.7111647	remain	-0.09152128
-3.7111647	calm	-0.09152128
-3.7111647	further	-0.09152128
-3.7111647	notice	-0.09152128
-3.5039	put	-0.09152128
-3.7111647	standby	-0.09152128
-3.7111647	schools	-0.09152128
-3.7111647	splittin	-0.09152128
-3.5039	apart	-0.09152128
-3.7111647	large	-0.09152128
-3.7111647	parts	-0.09152128
-3.7111647	meteors	-0.09152128
-3.7111647	falling	-0.09152128
-3.7111647	predicted	-0.09152128
-3.1850529	quite	-0.15579963
-3.7111647	mystical	-0.09152128
-3.7111647	splitting	-0.09152128
-3.7111647	roche	-0.09152128
-3.7111647	limit	-0.09152128
-3.7111647	mustve	-0.09152128
-3.7111647	structural	-0.09152128
-3.7111647	weakness	-0.09152128
-3.7111647	shoemaker	-0.09152128
-3.7111647	levy	-0.09152128
-3.7111647	collided	-0.09152128
-3.7111647	jupiter	-0.09152128
-3.7111647	nineteen	-0.09152128
-3.7111647	ninety	-0.09152128
-3.7111647	four	-0.09152128
-3.7111647	twenty	-0.09152128
-3.5039	fragments	-0.09152128
-3.7111647	likely	-0.09152128
-3.7111647	burn	-0.09152128
-3.7111647	reaching	-0.09152128
-3.7111647	pose	-0.09152128
-3.7111647	danger	-0.09152128
-3.7111647	probability	-0.09152128
-3.7111647	landing	-0.09152128
-3.7111647	populated	-0.09152128
-3.7111647	development	-0.09152128
-3.7111647	predict	-0.09152128
-3.7111647	trajectory	-0.09152128
-3.7111647	witnessing	-0.09152128
-3.7111647	spectacle	-0.09152128
-3.7111647	unassisted	-0.09152128
-3.7111647	bare	-0.09152128
-3.7111647	age	-0.09152128
-3.7111647	fortunate	-0.09152128
-3.7111647	argh	-0.09152128
-3.7111647	writing	-0.09152128
-3.7111647	fate	-0.09152128
-3.7111647	extend	-0.09152128
-3.5039	hands	-0.09152128
-3.7111647	breathe	-0.09152128
-3.7111647	raise	-0.09152128
-3.7111647	timeless	-0.09152128
-3.7111647	land	-0.09152128
-3.7111647	sideways	-0.09152128
-3.7111647	tick	-0.09152128
-3.7111647	tock	-0.09152128
-3.5039	hope	-0.09152128
-3.7111647	forever	-0.09152128
-3.7111647	spend	-0.09152128
-3.7111647	closing	-0.09152128
-3.7111647	applied	-0.09152128
-3.7111647	position	-0.09152128
-3.5039	landscapes	-0.09152128
-3.7111647	build	-0.09152128
-3.7111647	citys	-0.09152128
-3.7111647	vanish	-0.09152128
-3.7111647	warm	-0.09152128
-3.7111647	peoples	-0.09152128
-3.7111647	hearts	-0.09152128
-3.7111647	promising	-0.09152128
-3.5039	suit	-0.09152128
-3.7111647	offers	-0.09152128
-3.7111647	hunting	-0.09152128
-3.7111647	killing	-0.09152128
-3.7111647	chances	-0.09152128
-3.7111647	sudden	-0.09152128
-3.7111647	figured	-0.09152128
-3.7111647	face	-0.09152128
-3.5039	forgotten	-0.09152128
-3.7111647	argued	-0.09152128
-3.7111647	spent	-0.09152128
-3.7111647	alone	-0.09152128
-3.7111647	mountain	-0.09152128
-3.7111647	found	-0.09152128
-3.7111647	strangely	-0.09152128
-3.7111647	incident	-0.09152128
-3.7111647	involving	-0.09152128
-3.7111647	miraculously	-0.09152128
-3.7111647	unhurt	-0.09152128
-3.7111647	holding	-0.09152128
-3.7111647	drill	-0.09152128
-3.7111647	zone	-0.09152128
-3.7111647	sheer	-0.09152128
-3.7111647	coincidence	-0.09152128
-3.7111647	sparked	-0.09152128
-3.7111647	various	-0.09152128
-3.7111647	conspiracy	-0.09152128
-3.7111647	read	-0.09152128
-3.7111647	obsessed	-0.09152128
-3.7111647	interest	-0.09152128
-3.7111647	mystery	-0.09152128
-3.7111647	anybody	-0.09152128
-3.7111647	happiness	-0.09152128
-3.7111647	bridal	-0.09152128
-3.7111647	fair	-0.09152128
-3.7111647	weddin	-0.09152128
-3.7111647	married	-0.09152128
-3.7111647	chapel	-0.09152128
-3.7111647	reminds	-0.09152128
-3.7111647	shave	-0.09152128
-3.7111647	ceremony	-0.09152128
-3.7111647	diet	-0.09152128
-3.7111647	eatin	-0.09152128
-3.7111647	cake	-0.09152128
-3.3178875	longer	-0.09152128
-3.7111647	chest	-0.09152128
-3.7111647	tight	-0.09152128
-3.7111647	stick	-0.09152128
-3.7111647	bit	-0.09152128
-3.7111647	fliers	-0.09152128
-3.7111647	scaling	-0.09152128
-3.7111647	walls	-0.09152128
-3.7111647	climber	-0.09152128
-3.7111647	tired	-0.09152128
-3.5039	playing	-0.23127234
-3.7111647	hide	-0.09152128
-3.7111647	seek	-0.09152128
-3.7111647	dead	-0.09152128
-3.7111647	hand	-0.09152128
-3.7111647	reached	-0.09152128
-3.7111647	showy	-0.09152128
-3.7111647	crier	-0.09152128
-3.5039	tears	-0.17952915
-3.7111647	drier	-0.09152128
-3.7111647	wipe	-0.09152128
-3.7111647	dry	-0.09152128
-3.7111647	refused	-0.09152128
-3.7111647	pouring	-0.09152128
-3.5039	happy	-0.23127234
-3.7111647	smiling	-0.09152128
-3.7111647	lonely	-0.09152128
-3.7111647	ask	-0.09152128
-3.7111647	sorrowful	-0.09152128
-3.7111647	gust	-0.09152128
-3.7111647	blew	-0.09152128
-3.7111647	loneliness	-0.09152128
-3.7111647	carried	-0.09152128
-3.7111647	breeze	-0.09152128
-3.7111647	sky	-0.09152128
-3.7111647	shedding	-0.09152128
-3.7111647	stream	-0.09152128
-3.7111647	miles	-0.09152128
-3.7111647	blue	-0.09152128
-3.7111647	speeches	-0.09152128
-3.7111647	father	-0.09152128
-3.7111647	despair	-0.09152128
-3.7111647	warmth	-0.09152128
-3.7111647	comfort	-0.09152128
-3.7111647	smile	-0.09152128
-3.7111647	honestly	-0.09152128
-3.7111647	copied	-0.09152128
-3.7111647	upon	-0.09152128
-3.7111647	stars	-0.09152128
-3.7111647	toys	-0.09152128
-3.7111647	adored	-0.09152128
-3.7111647	rollin	-0.09152128
-3.7111647	corners	-0.09152128
-3.7111647	floor	-0.09152128
-3.7111647	counted	-0.09152128
-3.7111647	someday	-0.09152128
-3.7111647	trade	-0.09152128
-3.7111647	class	-0.09152128
-3.7111647	waved	-0.09152128
-3.7111647	new	-0.09152128
-3.7111647	especially	-0.09152128
-3.7111647	wide	-0.09152128
-3.7111647	surely	-0.09152128
-3.7111647	august	-0.09152128
-3.7111647	summer	-0.09152128
-3.7111647	santa	-0.09152128
-3.7111647	claus	-0.09152128
-3.7111647	glee	-0.09152128
-3.7111647	dashing	-0.09152128
-3.7111647	steps	-0.09152128

\2-grams:
-1.1091647	i </s>	0
-0.5577847	up </s>	0
-0.71313184	why </s>	0
-0.28780612	now </s>	0
-1.1698177	and </s>	0
-0.32140043	again </s>	0
-0.85902596	that </s>	0
-0.7292719	dream </s>	0
-1.0688628	was </s>	0
-1.0882399	had </s>	0
-0.99877954	can </s>	0
-0.6536387	remember </s>	0
-0.70005023	it </s>	0
-0.84406745	but </s>	0
-0.99332196	thing </s>	0
-1.098841	does </s>	0
-1.0539382	is </s>	0
-1.1610373	a </s>	0
-1.2427865	of </s>	0
-0.57771105	loss </s>	0
-1.1032653	for </s>	0
-0.68780744	long </s>	0
-0.54408383	time </s>	0
-0.57771105	afterwards </s>	0
-1.0897108	searching </s>	0
-0.74518275	something </s>	0
-1.0848607	or </s>	0
-0.8363865	someone </s>	0
-0.88457644	this </s>	0
-0.6513474	feeling </s>	0
-0.9492052	ever </s>	0
-0.51713663	day </s>	0
-0.7710587	fell </s>	0
-0.86093277	almost </s>	0
-1.1103437	like </s>	0
-1.0337148	out </s>	0
-1.037731	more </s>	0
-0.57771105	less </s>	0
-0.45784503	view </s>	0
-0.7631942	ah </s>	0
-1.2644166	if </s>	0
-0.47364864	night </s>	0
-0.9850436	could </s>	0
-0.9492052	reach </s>	0
-0.2719585	world </s>	0
-0.7710587	fading </s>	0
-0.57771105	dust </s>	0
-0.51713663	then </s>	0
-0.8828722	what </s>	0
-0.9743925	words </s>	0
-0.9465143	be </s>	0
-1.1302356	from </s>	0
-0.86093277	probably </s>	0
-0.47364864	fade </s>	0
-1.1180701	on </s>	0
-0.9295601	oh </s>	0
-0.57771105	heard </s>	0
-0.6356974	lately </s>	0
-1.1512898	in </s>	0
-1.1098648	even </s>	0
-0.57771105	believing </s>	0
-0.45784503	reason </s>	0
-0.86093277	stop </s>	0
-0.9492052	place </s>	0
-0.57771105	dies </s>	0
-0.85753334	where </s>	0
-0.9820556	end </s>	0
-0.32140043	life </s>	0
-0.7710587	lies </s>	0
-0.4695028	there </s>	0
-1.0182276	one </s>	0
-0.8659586	well </s>	0
-1.1994085	to </s>	0
-0.57771105	unprecedented </s>	0
-1.1584091	high </s>	0
-0.567659	love </s>	0
-0.37988916	yet </s>	0
-0.442078	me </s>	0
-0.8031729	you </s>	0
-0.33085844	dear </s>	0
-1.2247156	we </s>	0
-1.0296242	nice </s>	0
-0.86093277	meet </s>	0
-0.93519646	way </s>	0
-0.627876	name </s>	0
-0.46659327	taki </s>	0
-0.9506496	dont </s>	0
-0.31642768	mitsuha </s>	0
-0.27279994	sis </s>	0
-1.0874572	are </s>	0
-0.5683794	doing </s>	0
-0.91396797	whoa </s>	0
-1.0659094	so </s>	0
-1.0490916	still </s>	0
-0.57771105	asleep </s>	0
-0.7710587	hurry </s>	0
-0.2177305	huh </s>	0
-0.6534333	wha </s>	0
-0.57771105	whaaat </s>	0
-0.6756305	do </s>	0
-0.40169948	grandma </s>	0
-0.6096118	mornin </s>	0
-0.57771105	slow </s>	0
-0.567659	tomorrow </s>	0
-0.91396797	lot </s>	0
-0.82365	back </s>	0
-0.7710587	normal </s>	0
-0.38309914	today </s>	0
-1.1381847	were </s>	0
-0.86093277	crazy </s>	0
-0.7292719	yesterday </s>	0
-0.67482656	mean </s>	0
-0.60579103	itomori </s>	0
-0.99332196	good </s>	0
-0.57771105	morning </s>	0
-0.847054	town </s>	0
-0.7710587	hall </s>	0
-0.9492052	election </s>	0
-0.9492052	next </s>	0
-0.567659	month </s>	0
-0.8156314	everyone </s>	0
-0.57771105	tha </s>	0
-0.7950722	comet </s>	0
-0.8150595	years </s>	0
-0.567659	earth </s>	0
-1.0898225	with </s>	0
-0.6356974	him </s>	0
-0.9492052	already </s>	0
-0.32140043	okay </s>	0
-0.57771105	millennium </s>	0
-0.86093277	leaving </s>	0
-0.8845123	wait </s>	0
-0.6356974	festival </s>	0
-1.1604645	its </s>	0
-0.86093277	fun </s>	0
-0.91396797	saya </s>	0
-0.48817927	teshi </s>	0
-1.008081	off </s>	0
-1.0490916	cause </s>	0
-0.57771105	heavy </s>	0
-0.8425199	hey </s>	0
-0.9492052	yknow </s>	0
-0.91396797	great </s>	0
-0.57771105	couple </s>	0
-0.9958706	no </s>	0
-1.165431	see </s>	0
-0.91396797	actually </s>	0
-0.7710587	hair </s>	0
-0.81644154	yeah </s>	0
-0.93061084	did </s>	0
-1.038091	all </s>	0
-0.57771105	demons </s>	0
-0.91396797	somethin </s>	0
-0.86093277	totally </s>	0
-0.47364864	body </s>	0
-0.33085844	nonsense </s>	0
-0.9492052	enough </s>	0
-0.38316143	right </s>	0
-0.84762174	guys </s>	0
-0.78265166	about </s>	0
-0.57771105	project </s>	0
-0.9492052	these </s>	0
-0.99332196	things </s>	0
-0.57771105	community </s>	0
-0.33085844	anyway </s>	0
-0.4821412	us </s>	0
-1.0313379	miyamizu </s>	0
-0.9492052	mayor </s>	0
-1.008081	pretty </s>	0
-0.47677818	too </s>	0
-0.57771105	resident </s>	0
-0.57771105	walking </s>	0
-0.57771105	family </s>	0
-0.7292719	ya </s>	0
-0.50036734	her </s>	0
-0.7710587	light </s>	0
-0.91396797	word </s>	0
-0.57771105	twilight </s>	0
-0.77119493	sure </s>	0
-0.4244999	here </s>	0
-0.57771105	blur </s>	0
-0.96570367	not </s>	0
-0.57771105	human </s>	0
-1.0199174	people </s>	0
-0.7631942	hour </s>	0
-0.7710587	says </s>	0
-0.86093277	same </s>	0
-0.91396797	use </s>	0
-0.57771105	pictures </s>	0
-0.4916585	uh </s>	0
-0.9492052	yes </s>	0
-1.0823785	didnt </s>	0
-0.37988916	either </s>	0
-0.9492052	weird </s>	0
-1.0313379	dreams </s>	0
-0.57771105	fuzzy </s>	0
-1.0557318	maybe </s>	0
-0.57771105	multiverse </s>	0
-0.7710587	shut </s>	0
-0.7710587	minute </s>	0
-1.1208087	who </s>	0
-0.7710587	wrote </s>	0
-0.47364864	k </s>	0
-0.51886487	forget </s>	0
-0.87876093	really </s>	0
-0.47364864	funny </s>	0
-0.37988916	fine </s>	0
-0.70464325	know </s>	0
-0.57771105	dontcha </s>	0
-0.9492052	ugh </s>	0
-0.47364864	anymore </s>	0
-0.7710587	small </s>	0
-0.57771105	ey </s>	0
-0.73577833	go </s>	0
-0.88065946	tokyo </s>	0
-0.7710587	hours </s>	0
-0.91396797	close </s>	0
-0.33085844	clock </s>	0
-0.57771105	dentists </s>	0
-0.6096118	date </s>	0
-0.9062493	able </s>	0
-0.33085844	short </s>	0
-0.9492052	cafe </s>	0
-0.86093277	hello </s>	0
-0.7710587	kids </s>	0
-0.57771105	maam </s>	0
-0.567659	home </s>	0
-0.7710587	center </s>	0
-0.45784503	hm </s>	0
-0.49186012	school </s>	0
-0.91396797	future </s>	0
-0.7710587	doin </s>	0
-0.68780744	yotsuha </s>	0
-1.0167428	listen </s>	0
-0.7710587	voice </s>	0
-0.57771105	thread </s>	0
-0.57771105	focus </s>	0
-0.57771105	history </s>	0
-0.7292719	ago </s>	0
-0.7710587	goes </s>	0
-0.91396797	mayugoro </s>	0
-0.91396797	fire </s>	0
-0.9492052	down </s>	0
-1.0313379	shrine </s>	0
-0.7710587	destroyed </s>	0
-0.47364864	meaning </s>	0
-0.47364864	left </s>	0
-0.7710587	gone </s>	0
-0.99332196	shouldnt </s>	0
-0.7710587	duty </s>	0
-0.57771105	task </s>	0
-0.33085844	mine </s>	0
-0.57771105	politics </s>	0
-0.57771105	hopeless </s>	0
-0.57771105	foreman </s>	0
-1.0313379	help </s>	0
-0.57771105	guaranteed </s>	0
-0.7710587	easy </s>	0
-0.7710587	katsuhiko </s>	0
-0.86093277	site </s>	0
-0.57771105	weekend </s>	0
-0.57771105	grngh </s>	0
-0.91396797	alright </s>	0
-0.33085844	mother </s>	0
-0.567659	sake </s>	0
-0.57771105	alcohol </s>	0
-0.37988916	kuchikamizake </s>	0
-0.57771105	ma </s>	0
-0.57771105	teenager </s>	0
-0.57771105	videos </s>	0
-0.57771105	buttloads </s>	0
-0.57771105	laws </s>	0
-0.47364864	problem </s>	0
-0.7710587	boy </s>	0
-0.57771105	jackass </s>	0
-0.57771105	ow </s>	0
-0.57771105	hmm </s>	0
-0.57771105	aaaah </s>	0
-0.57771105	eh </s>	0
-0.86093277	wasnt </s>	0
-0.6536387	sorry </s>	0
-0.68780744	late </s>	0
-0.9062493	seeya </s>	0
-0.9743925	tsukasa </s>	0
-0.57771105	hrm </s>	0
-0.57771105	uhhh </s>	0
-0.57771105	pee </s>	0
-0.51886487	real </s>	0
-0.57771105	daikanyama </s>	0
-0.7710587	gig </s>	0
-0.7710587	club </s>	0
-0.57771105	movie </s>	0
-0.57771105	taaaki </s>	0
-0.33085844	lunch </s>	0
-1.0032717	far </s>	0
-0.4821412	girl </s>	0
-0.57771105	gal </s>	0
-0.7292719	guy </s>	0
-0.57771105	sandwich </s>	0
-0.57771105	hahahaha </s>	0
-0.37988916	later </s>	0
-0.57771105	intricate </s>	0
-0.57771105	set </s>	0
-0.57771105	cost </s>	0
-0.57771105	hmmm </s>	0
-0.2719585	work </s>	0
-0.86093277	shift </s>	0
-1.0633929	goin </s>	0
-0.9492052	side </s>	0
-0.57771105	louder </s>	0
-0.7638728	over </s>	0
-0.57771105	waiter </s>	0
-1.0783455	look </s>	0
-0.9743925	wrong </s>	0
-0.6187544	tonight </s>	0
-0.99332196	okudera </s>	0
-1.1467927	before </s>	0
-0.33085844	skirt </s>	0
-0.47364864	happen </s>	0
-1.0689919	he </s>	0
-0.567659	other </s>	0
-0.57771105	da </s>	0
-0.57771105	earlier </s>	0
-0.57771105	fight </s>	0
-0.57771105	guessed </s>	0
-0.57771105	journal </s>	0
-0.57771105	organized </s>	0
-1.1782501	going </s>	0
-0.9820556	thanks </s>	0
-0.86093277	ha </s>	0
-0.57771105	huhah </s>	0
-0.57771105	phone </s>	0
-0.51886487	mind </s>	0
-0.86093277	cute </s>	0
-0.57771105	uhhhhh </s>	0
-0.86093277	boobies </s>	0
-0.57771105	boobs </s>	0
-0.57771105	posters </s>	0
-0.57771105	kickback </s>	0
-0.567659	places </s>	0
-0.45784503	eyes </s>	0
-0.7710587	best </s>	0
-0.57771105	pace </s>	0
-0.91396797	switch </s>	0
-0.567659	somewhere </s>	0
-0.57771105	boonies </s>	0
-0.57771105	unknown </s>	0
-0.7710587	rules </s>	0
-0.68780744	through </s>	0
-0.57771105	happening </s>	0
-0.7710587	everywhere </s>	0
-0.57771105	laughter </s>	0
-0.57771105	disappeared </s>	0
-0.33085844	money </s>	0
-0.57771105	impossible </s>	0
-0.57771105	lose </s>	0
-0.7710587	yourself </s>	0
-0.57771105	girlfriend </s>	0
-0.7710587	relationship </s>	0
-0.7710587	ready </s>	0
-1.098841	has </s>	0
-0.52876496	point </s>	0
-0.57771105	uniform </s>	0
-0.27476972	away </s>	0
-0.57771105	famous </s>	0
-0.33085844	careful </s>	0
-0.33085844	musubi </s>	0
-0.57771105	subi </s>	0
-0.86093277	means </s>	0
-0.6356974	union </s>	0
-0.86093277	god </s>	0
-0.7710587	itself </s>	0
-0.7710587	shape </s>	0
-0.47364864	tangle </s>	0
-0.27476972	break </s>	0
-0.57771105	reconnect </s>	0
-0.567659	person </s>	0
-0.57771105	custom </s>	0
-0.57771105	netherworld </s>	0
-0.7710587	planned </s>	0
-0.33085844	agh </s>	0
-1.1004171	am </s>	0
-0.7710587	first </s>	0
-0.57771105	spots </s>	0
-0.57771105	expensive </s>	0
-0.57771105	wallflower </s>	0
-0.33085844	dinner </s>	0
-0.86093277	else </s>	0
-0.57771105	weirdo </s>	0
-0.57771105	arentcha </s>	0
-0.86093277	heart </s>	0
-1.0199174	said </s>	0
-0.7710587	network </s>	0
-0.57771105	due </s>	0
-0.7710587	thought </s>	0
-0.86093277	dad </s>	0
-0.7710587	asked </s>	0
-0.57771105	covered </s>	0
-0.57771105	catfish </s>	0
-0.57771105	complicated </s>	0
-0.567659	landscape </s>	0
-0.7710587	clue </s>	0
-0.57771105	search </s>	0
-0.57771105	awww </s>	0
-0.57771105	anything </s>	0
-0.7710587	ramen </s>	0
-0.57771105	hon </s>	0
-0.57771105	mountains </s>	0
-0.86093277	disaster </s>	0
-0.45784503	died </s>	0
-0.57771105	october </s>	0
-0.7710587	perigee </s>	0
-0.57771105	japan </s>	0
-0.57771105	population </s>	0
-0.7710587	lives </s>	0
-0.57771105	teshigawara </s>	0
-0.57771105	sayaka </s>	0
-0.57771105	obsessive </s>	0
-0.86093277	saying </s>	0
-0.57771105	recently </s>	0
-0.57771105	frantic </s>	0
-0.57771105	sounding </s>	0
-0.57771105	changed </s>	0
-0.57771105	ghost </s>	0
-0.7710587	bath </s>	0
-0.57771105	um </s>	0
-0.57771105	wrist </s>	0
-0.57771105	somebody </s>	0
-0.57771105	charm </s>	0
-0.57771105	connect </s>	0
-0.567659	job </s>	0
-0.57771105	past </s>	0
-0.7710587	somehow </s>	0
-0.57771105	unraveled </s>	0
-0.57771105	chance </s>	0
-0.57771105	hh </s>	0
-0.7710587	names </s>	0
-0.57771105	treasures </s>	0
-0.27476972	sister </s>	0
-0.57771105	dears </s>	0
-0.57771105	girls </s>	0
-0.57771105	favor </s>	0
-0.7710587	strikes </s>	0
-0.58440566	run </s>	0
-0.33085844	alive </s>	0
-0.57771105	boo </s>	0
-0.57771105	ungh </s>	0
-0.57771105	earths </s>	0
-1.0190867	knew </s>	0
-0.27279994	myself </s>	0
-0.7710587	though </s>	0
-0.7710587	faded </s>	0
-0.45784503	die </s>	0
-0.7710587	heh </s>	0
-0.86093277	system </s>	0
-0.57771105	hahahahaha </s>	0
-0.57771105	gentleman </s>	0
-0.57771105	trouble </s>	0
-0.57771105	complaining </s>	0
-0.33085844	plan </s>	0
-0.57771105	bomb </s>	0
-0.57771105	easily </s>	0
-1.0757116	evacuate </s>	0
-0.86093277	while </s>	0
-0.567659	yours </s>	0
-0.7710587	theories </s>	0
-0.57771105	crater </s>	0
-0.57771105	sick </s>	0
-0.57771105	trait </s>	0
-0.57771105	examination </s>	0
-0.57771105	doctor </s>	0
-0.57771105	dark </s>	0
-0.57771105	man </s>	0
-0.7710587	bike </s>	0
-0.57771105	surprise </s>	0
-0.7710587	clear </s>	0
-0.7710587	doors </s>	0
-0.86093277	came </s>	0
-0.57771105	issue </s>	0
-0.57771105	lyin </s>	0
-0.57771105	busted </s>	0
-0.57771105	worry </s>	0
-0.7710587	swear </s>	0
-0.57771105	precious </s>	0
-0.57771105	criminals </s>	0
-0.57771105	hoo </s>	0
-0.57771105	explosions </s>	0
-0.7710587	immediately </s>	0
-0.37988916	district </s>	0
-0.57771105	firefighters </s>	0
-0.57771105	checking </s>	0
-0.57771105	called </s>	0
-0.57771105	accident </s>	0
-0.7710587	put </s>	0
-0.57771105	standby </s>	0
-0.7710587	apart </s>	0
-0.57771105	four </s>	0
-0.57771105	danger </s>	0
-0.57771105	development </s>	0
-0.57771105	spectacle </s>	0
-0.57771105	unassisted </s>	0
-0.57771105	argh </s>	0
-0.57771105	fate </s>	0
-0.7710587	hands </s>	0
-0.57771105	tock </s>	0
-0.7710587	hope </s>	0
-0.57771105	position </s>	0
-0.57771105	hearts </s>	0
-0.57771105	promising </s>	0
-0.7710587	face </s>	0
-0.57771105	argued </s>	0
-0.57771105	mountain </s>	0
-0.57771105	miraculously </s>	0
-0.57771105	unhurt </s>	0
-0.57771105	zone </s>	0
-0.57771105	obsessed </s>	0
-0.57771105	fair </s>	0
-0.57771105	chapel </s>	0
-0.57771105	cake </s>	0
-0.86093277	longer </s>	0
-0.57771105	tight </s>	0
-0.7710587	fliers </s>	0
-0.57771105	climber </s>	0
-0.57771105	crier </s>	0
-0.47364864	tears </s>	0
-0.57771105	drier </s>	0
-0.57771105	dry </s>	0
-0.33085844	happy </s>	0
-0.57771105	lonely </s>	0
-0.57771105	breeze </s>	0
-0.57771105	despair </s>	0
-0.57771105	adored </s>	0
-0.57771105	floor </s>	0
-0.57771105	glee </s>	0
-2.9074316	<s> some	-0.052919693
-2.5230956	that some	-0.052919693
-1.246393	had some	-0.052919693
-1.5935091	for some	-0.1461697
-2.001953	out some	-0.052919693
-2.1575851	at some	-0.052919693
-2.2511132	on some	-0.052919693
-2.2832756	have some	-0.052919693
-2.1576684	with some	-0.052919693
-1.3094404	want some	-0.052919693
-0.71716225	handpicked some	-0.052919693
-0.71716225	stirred some	-0.052919693
-1.0141726	drank some	-0.052919693
-1.9196172	some mornings	-0.052919693
-1.1358672	<s> i	-0.20896535
-0.6977195	mornings i	-0.052919693
-1.8342973	i i	-0.052919693
-1.797307	why i	-0.052919693
-0.66469765	when i	-0.08558753
-1.3614373	and i	-0.19653513
-1.6862546	that i	-0.052919663
-1.5378056	was i	-0.052919693
-1.648644	had i	-0.052919693
-1.3589196	can i	-0.20156609
-2.0408807	it i	-0.052919693
-1.166429	but i	-0.09704671
-1.8344967	time i	-0.052919693
-1.5636748	someone i	-0.12091402
-1.1313426	since i	-0.052919693
-1.4045489	like i	-0.052919663
-0.7104842	if i	-0.052919693
-1.7131951	what i	-0.052919663
-1.1313426	promise i	-0.052919693
-1.4332216	say i	-0.052919693
-1.7930378	oh i	-0.052919693
-1.1313426	wish i	-0.052919693
-1.9606237	have i	-0.052919693
-1.3347139	reason i	-0.052919693
-1.0904901	well i	-0.08558753
-2.0820339	you i	-0.052919693
-1.7988834	way i	-0.052919693
-1.5378305	after i	-0.052919693
-1.8099043	taki i	-0.052919693
-1.8127556	dont i	-0.052919693
-1.5481781	so i	-0.052919693
-1.8474554	huh i	-0.052919693
-1.5018587	do i	-0.052919693
-1.3716156	today i	-0.052919693
-1.7133492	town i	-0.052919693
-1.1933178	would i	-0.052919693
-1.8853185	just i	-0.052919693
-1.3241801	him i	-0.052919693
-1.260959	hey i	-0.052919663
-1.313656	yknow i	-0.052919693
-1.3018032	no i	-0.10643681
-1.6835259	yeah i	-0.052919693
-1.1351471	did i	-0.052919693
-1.8984722	all i	-0.052919693
-1.6764176	as i	-0.052919693
-1.5721622	guys i	-0.052919693
-1.6401461	sure i	-0.052919693
-1.8863719	here i	-0.052919693
-1.8796856	uh i	-0.052919693
-0.9764561	plus i	-0.052919693
-1.313656	weird i	-0.052919693
-1.236064	memories i	-0.052919693
-1.5636748	maybe i	-0.052919693
-1.7234745	who i	-0.052919693
-1.2581044	fine i	-0.052919693
-1.6146296	tokyo i	-0.052919693
-1.483072	date i	-0.052919693
-1.5864525	how i	-0.052919693
-0.6977195	dunno i	-0.052919693
-1.236064	mayugoro i	-0.052919693
-0.8938098	because i	-0.1461697
-0.9928078	should i	-0.052919693
-1.3945014	real i	-0.052919693
-1.4332216	guy i	-0.052919693
-0.9764561	lucky i	-0.052919693
-0.97849345	before i	-0.1461697
-0.4466155	am i	-0.09704671
-0.6977195	rate i	-0.052919693
-0.6977195	although i	-0.052919693
-0.9764561	somehow i	-0.052919693
-1.1313426	while i	-0.052919693
-0.6977195	daughter i	-0.052919693
-0.6977195	natori i	-0.052919693
-0.6977195	notice i	-0.052919693
-0.6977195	offers i	-0.052919693
-0.9764561	face i	-0.20156609
-2.1031585	i wake	-0.32805672
-2.4598901	we wake	-0.20156609
-0.38091677	wake up	-0.33822945
-2.3329284	it up	-0.052919693
-2.2395024	is up	-0.052919693
-1.8377707	make up	-0.052919693
-1.1698625	gave up	-0.052919693
-0.7721863	end up	-0.052919693
-1.3785912	looking up	-0.052919693
-2.4036098	you up	-0.052919693
-1.0030581	hurry up	-0.20156609
-1.789124	back up	-0.052919693
-1.0030581	show up	-0.052919693
-2.181651	its up	-0.052919693
-1.0030581	study up	-0.052919693
-1.6498022	come up	-0.052919693
-1.3737129	stand up	-0.052919693
-1.2857088	memories up	-0.052919693
-1.0030581	shut up	-0.052919693
-1.7646301	whats up	-0.052919693
-1.1698625	comin up	-0.052919693
-0.7115178	grown up	-0.052919693
-0.7115178	cheer up	-0.052919693
-1.0030581	wind up	-0.052919693
-1.7047052	look up	-0.052919693
-1.2857088	met up	-0.20156609
-0.7115178	ended up	-0.052919693
-0.7115178	barking up	-0.052919693
-0.7115178	bento up	-0.052919693
-0.7115178	showed up	-0.052919693
-0.7115178	burn up	-0.052919693
-0.7115178	counted up	-0.052919693
-0.7115178	dashing up	-0.052919693
-2.8998635	<s> crying	-0.32805672
-2.220032	up crying	-0.052919693
-2.2158194	im crying	-0.052919693
-1.1937821	crying without	-0.052919693
-1.707019	everyone without	-0.052919693
-1.8173555	tokyo without	-0.052919693
-0.7196947	august without	-0.052919693
-0.7196947	claus without	-0.052919693
-1.4183933	without knowing	-0.052919693
-2.061395	<s> why	-0.10711677
-0.71747804	knowing why	-0.052919693
-1.3169295	thats why	-0.10643681
-2.4770014	and why	-0.052919693
-1.6686828	but why	-0.052919663
-2.4187906	is why	-0.052919693
-2.0130675	taki why	-0.052919693
-2.236403	so why	-0.052919693
-1.6959928	grandma why	-0.052919693
-1.3085029	stuff why	-0.052919693
-1.4793605	late why	-0.052919693
-1.5427336	knew why	-0.20156609
-1.9761871	<s> thats	-0.19111647
-2.3771079	and thats	-0.052919693
-2.1731138	but thats	-0.052919693
-1.5263039	thing thats	-0.052919693
-2.032173	oh thats	-0.052919693
-2.0297973	one thats	-0.052919693
-2.1054506	well thats	-0.052919693
-1.9094367	town thats	-0.052919693
-1.8935579	hey thats	-0.052919693
-1.868237	yeah thats	-0.052919693
-2.0853808	right thats	-0.052919693
-1.8592976	too thats	-0.052919693
-1.0104359	light thats	-0.052919693
-1.0104359	easy thats	-0.052919693
-1.2999653	course thats	-0.052919693
-1.6305645	goin thats	-0.052919693
-0.7152726	dera thats	-0.052919693
-0.7152726	barrier thats	-0.052919693
-1.0104359	suit thats	-0.052919693
-2.5485175	<s> when	-0.052919693
-2.0726235	thats when	-0.052919693
-1.8285625	remember when	-0.052919693
-1.6511288	but when	-0.1461697
-1.662334	only when	-0.052919693
-1.2987592	last when	-0.052919693
-2.2845407	for when	-0.052919693
-1.5011085	time when	-0.052919693
-2.079542	if when	-0.052919693
-1.3781412	even when	-0.3521493
-2.1669378	so when	-0.052919693
-1.3929971	festival when	-0.052919693
-1.5242748	things when	-0.20156609
-1.0098163	straight when	-0.052919693
-1.3897495	down when	-0.052919693
-1.3020515	sake when	-0.052919693
-0.7149584	noticed when	-0.052919693
-0.7149584	popular when	-0.052919693
-1.1798221	dad when	-0.052919693
-0.7149584	brightness when	-0.052919693
-2.121627	when everything	-0.052919693
-2.5391738	is everything	-0.052919693
-1.7128859	after everything	-0.052919693
-1.1966038	everything happens	-0.052919693
-2.3422222	so happens	-0.052919693
-2.2910566	<s> now	-0.34266317
-1.0104359	happens now	-0.052919693
-2.3771079	and now	-0.052919693
-2.0588195	time now	-0.052919693
-1.1839147	than now	-0.052919693
-2.2371588	me now	-0.052919693
-2.126274	are now	-0.052919693
-1.0507418	right now	-0.10643681
-1.9944407	about now	-0.20156609
-2.0407615	go now	-0.20156609
-0.7152726	cuter now	-0.052919693
-1.0104359	week now	-0.052919693
-0.55690634	unravel now	-0.20156609
-1.6246618	said now	-0.052919693
-1.0104359	until now	-0.052919693
-0.7152726	nicer now	-0.052919693
-1.0104359	charge now	-0.052919693
-1.0104359	forgotten now	-0.052919693
-1.1807389	longer now	-0.45299548
-1.6178203	<s> and	-0.110524155
-1.8517689	when and	-0.052919693
-1.39959	now and	-0.1461697
-2.0165038	that and	-0.052919693
-1.8344967	time and	-0.32805672
-1.5636748	someone and	-0.052919693
-1.7839414	out and	-0.052919693
-1.5553503	more and	-0.052919693
-0.6977195	air and	-0.052919693
-1.7930378	oh and	-0.052919693
-0.37619582	born and	-0.052919693
-1.7586915	there and	-0.052919693
-0.6977195	discover and	-0.052919693
-1.9653312	me and	-0.052919693
-1.9365616	you and	-0.052919663
-1.9148105	mitsuha and	-0.052919693
-1.8584393	so and	-0.052919693
-1.8280276	today and	-0.052919693
-1.313656	already and	-0.052919693
-1.236064	saya and	-0.052919693
-1.6144453	two and	-0.052919693
-0.9764561	safe and	-0.052919693
-1.313656	mayor and	-0.052919693
-1.2470729	each and	-0.052919693
-1.473794	hour and	-0.052919693
-1.663261	she and	-0.052919693
-0.6977195	desk and	-0.052919693
-0.6977195	bedhead and	-0.052919693
-0.9764561	small and	-0.052919693
-0.9764561	hours and	-0.052919693
-0.6977195	stage and	-0.052919693
-1.6445153	school and	-0.052919693
-1.1313426	round and	-0.052919693
-1.4332216	ago and	-0.052919693
-1.236064	fire and	-0.052919693
-1.313656	down and	-0.052919693
-1.473794	shrine and	-0.052919693
-0.6977195	priesthood and	-0.052919693
-0.9764561	kadoiri and	-0.052919693
-1.2581044	kuchikamizake and	-0.052919693
-0.6977195	photos and	-0.052919693
-1.678057	sorry and	-0.052919693
-1.5342245	girl and	-0.052919693
-1.4332216	guy and	-0.052919693
-1.4808421	work and	-0.052919693
-1.1313426	shift and	-0.052919693
-0.9764561	seven and	-0.052919693
-0.6977195	zucchini and	-0.052919693
-1.3743421	wrong and	-0.052919693
-1.1313426	luck and	-0.052919693
-1.313656	around and	-0.052919693
-0.9764561	best and	-0.052919693
-1.1313426	suddenly and	-0.052919693
-1.1313426	switches and	-0.052919693
-0.6977195	game and	-0.052919693
-1.3241801	union and	-0.052919693
-0.6977195	assemble and	-0.20156609
-0.9764561	twist and	-0.052919693
-1.1428832	unravel and	-0.052919693
-0.9764561	ahead and	-0.052919693
-0.6977195	grateful and	-0.052919693
-0.6977195	connected and	-0.052919693
-1.1313426	meteor and	-0.052919693
-0.9764561	pm and	-0.052919693
-0.6977195	newspapers and	-0.052919693
-0.6977195	yotsuhas and	-0.052919693
-0.6977195	true and	-0.052919693
-0.6977195	proper and	-0.052919693
-0.6977195	calm and	-0.052919693
-0.9764561	apart and	-0.052919693
-0.6977195	parts and	-0.052919693
-0.6977195	tick and	-0.052919693
-0.6977195	hide and	-0.45299548
-0.6977195	warmth and	-0.052919693
-0.6977195	smile and	-0.052919693
-0.6977195	waved and	-0.052919693
-2.565698	and again	-0.052919693
-2.6440625	it again	-0.052919693
-2.3069367	you again	-0.052919693
-2.0337923	taki again	-0.052919693
-1.6575451	once again	-0.052919693
-1.4877309	happened again	-0.052919693
-1.6084749	help again	-0.052919693
-3.5562222	<s> whatever	-0.052919693
-2.3059695	but whatever	-0.052919693
-2.4618027	for whatever	-0.052919693
-1.8455368	<s> that	-0.08785531
-1.1264554	everything that	-0.052919693
-0.97302914	happens that	-0.052919693
-1.8604461	now that	-0.052919693
-1.7386966	and that	-0.052919693
-1.1264554	whatever that	-0.052919693
-1.98892	that that	-0.052919693
-1.5268836	was that	-0.052919693
-1.6646384	remember that	-0.052919693
-1.4140227	thing that	-0.052919693
-1.1338049	does that	-0.052919693
-1.705533	is that	-0.052919663
-2.0287201	of that	-0.052919693
-1.9377513	for that	-0.052919693
-1.6009591	something that	-0.052919693
-1.1264554	since that	-0.052919693
-1.3971778	like that	-0.052919663
-1.8435768	at that	-0.052919693
-1.1264554	promise that	-0.052919693
-1.3939519	oh that	-0.052919693
-1.3174144	told that	-0.052919693
-1.6968324	in that	-0.052919693
-0.6959124	moment that	-0.052919693
-1.7065427	where that	-0.052919693
-2.0261228	to that	-0.052919693
-1.4114014	me that	-0.052919663
-1.9154159	you that	-0.052919693
-1.8353989	so that	-0.20156609
-1.8742154	do that	-0.052919693
-1.535181	mean that	-0.052919693
-1.6496495	comet that	-0.052919693
-1.864318	just that	-0.052919693
-1.8438345	with that	-0.052919693
-1.4540406	off that	-0.052919693
-1.732496	see that	-0.052919693
-1.5517777	all that	-0.052919693
-1.3562342	about that	-0.12091402
-0.6959124	achieved that	-0.052919693
-1.1264554	term that	-0.052919693
-1.1264554	hear that	-0.052919693
-0.6959124	knows that	-0.052919693
-1.7106829	not that	-0.052919693
-1.306241	believe that	-0.052919693
-0.9437175	dreams that	-0.052919663
-1.7141613	got that	-0.052919693
-1.3871881	forget that	-0.052919693
-1.7246749	really that	-0.052919693
-1.1636649	whats that	-0.052919693
-1.8203262	go that	-0.052919693
-0.6959124	train that	-0.052919693
-1.6324687	school that	-0.052919693
-0.6959124	whered that	-0.052919693
-1.6339098	think that	-0.052919693
-1.3174144	cords that	-0.052919693
-1.4242405	ago that	-0.052919693
-0.6959124	appreciate that	-0.052919693
-1.306241	saw that	-0.052919693
-0.97302914	turn that	-0.052919693
-1.2298535	whos that	-0.052919693
-0.97302914	wind that	-0.052919693
-1.5247834	girl that	-0.052919693
-0.97302914	order that	-0.052919693
-1.5816661	look that	-0.052919693
-1.1264554	arent that	-0.052919693
-1.3871881	mind that	-0.052919693
-0.6959124	doubt that	-0.052919693
-0.6959124	assume that	-0.052919693
-1.4879336	said that	-0.052919693
-1.2415749	isnt that	-0.052919693
-0.97302914	foresaw that	-0.052919693
-0.97302914	fragment that	-0.052919693
-0.6959124	remains that	-0.052919693
-0.6959124	expect that	-0.052919693
-0.6959124	nevermind that	-0.052919693
-0.97302914	drank that	-0.052919693
-0.97302914	swear that	-0.052919693
-0.6959124	land that	-0.052919693
-0.97302914	landscapes that	-0.052919693
-0.6959124	involving that	-0.052919693
-0.6959124	drill that	-0.052919693
-0.6959124	speeches that	-0.052919693
-0.6959124	toys that	-0.052919693
-2.6455092	that dream	-0.052919693
-1.6139219	a dream	-0.4174107
-2.4481957	this dream	-0.052919693
-2.4103212	we dream	-0.052919693
-2.2183306	my dream	-0.052919693
-1.4110553	strange dream	-0.052919693
-3.0108533	<s> was	-0.052919693
-1.6993241	i was	-0.052919693
-2.4528923	that was	-0.052919693
-1.5312105	dream was	-0.052919693
-1.3226612	it was	-0.11465148
-1.8352987	this was	-0.052919693
-1.6785321	day was	-0.052919693
-1.8589671	what was	-0.24131943
-1.9301481	there was	-0.052919693
-1.7800667	itomori was	-0.052919693
-1.3615576	who was	-0.3521493
-0.715587	festivals was	-0.052919693
-0.715587	surface was	-0.052919693
-1.1816576	second was	-0.052919693
-0.8316986	he was	-0.052919663
-0.715587	husband was	-0.052919693
-1.0110565	impact was	-0.052919693
-0.715587	lake was	-0.052919693
-3.2921526	<s> had	-0.052919693
-1.7196516	i had	-0.052919663
-2.1128917	it had	-0.052919693
-2.298545	you had	-0.052919693
-2.2433443	just had	-0.052919693
-1.6536679	people had	-0.052919693
-1.313458	havent had	-0.052919693
-0.71874326	mustve had	-0.052919693
-3.2542813	<s> can	-0.052919693
-1.3932116	i can	-0.18813509
-2.588778	that can	-0.052919693
-2.113661	time can	-0.052919693
-1.9750077	where can	-0.052919693
-1.868155	you can	-0.052919693
-1.2187327	we can	-0.052919693
-0.71842664	frequency can	-0.052919693
-1.0166814	theories can	-0.052919693
-3.0778868	<s> never	-0.052919693
-2.493639	that never	-0.052919693
-2.0113087	can never	-0.052919693
-1.2978216	will never	-0.052919693
-1.9033557	ill never	-0.052919693
-2.3379107	its never	-0.052919693
-2.1501014	no never	-0.20156609
-2.1244743	uh never	-0.052919693
-1.6858227	youve never	-0.052919693
-1.858016	they never	-0.052919693
-1.0129235	id never	-0.052919693
-1.6373562	should never	-0.052919693
-1.7846625	has never	-0.052919693
-0.71653146	calls never	-0.052919693
-0.71653146	texts never	-0.052919693
-3.2921526	<s> remember	-0.052919693
-2.292036	i remember	-0.1461697
-1.9151319	never remember	-0.052919693
-1.7728591	cant remember	-0.052919693
-1.9978366	even remember	-0.052919693
-2.082522	you remember	-0.15043887
-2.1498559	dont remember	-0.052919693
-1.9364305	ill remember	-0.052919693
-1.6768988	<s> it	-0.25173607
-1.7536054	and it	-0.052919693
-1.8164296	that it	-0.052919693
-1.8547217	was it	-0.24131943
-1.1973666	remember it	-0.052919693
-2.0361814	it it	-0.052919693
-1.8818864	but it	-0.052919693
-0.9172562	does it	-0.052919663
-1.556653	is it	-0.052919693
-1.682025	of it	-0.052919663
-1.6650438	for it	-0.052919693
-1.89709	like it	-0.052919693
-1.0390133	if it	-0.052919693
-1.8600851	at it	-0.052919693
-1.7339721	could it	-0.052919693
-1.6881725	will it	-0.052919693
-0.8165932	make it	-0.052919693
-0.8933732	say it	-0.052919693
-1.5739418	on it	-0.052919693
-0.719758	lost it	-0.32805672
-2.0058613	in it	-0.052919693
-1.1305243	gave it	-0.052919693
-1.7204789	where it	-0.052919693
-1.756256	there it	-0.052919693
-1.1305243	give it	-0.052919693
-1.8545133	so it	-0.052919693
-1.8899387	do it	-0.052919693
-0.975883	eat it	-0.052919693
-1.5445311	mean it	-0.052919693
-1.6613438	would it	-0.052919693
-0.9922492	once it	-0.052919693
-1.6860054	get it	-0.052919693
-1.3032027	see it	-0.32805672
-1.6808944	yeah it	-0.052919693
-1.7951802	did it	-0.052919693
-1.8947624	all it	-0.052919693
-1.6737362	as it	-0.052919693
-1.3620765	about it	-0.052919693
-0.6009584	call it	-0.052919663
-1.3124113	believe it	-0.052919693
-0.69741786	mention it	-0.052919693
-0.69906557	got it	-0.34266317
-1.393274	forget it	-0.052919693
-1.7129961	know it	-0.052919693
-1.6123542	tokyo it	-0.052919693
-0.69741786	twine it	-0.052919693
-1.421947	shouldnt it	-0.052919693
-1.3230451	leave it	-0.052919693
-0.975883	scene it	-0.052919693
-1.5615742	guess it	-0.052919693
-0.69741786	spittin it	-0.052919693
-0.69741786	lettin it	-0.052919693
-0.69741786	naturally it	-0.052919693
-1.2350227	course it	-0.052919693
-0.69741786	check it	-0.052919693
-1.3124113	saw it	-0.052919693
-0.975883	sell it	-0.052919693
-1.1305243	wasnt it	-0.052919693
-0.975883	howd it	-0.052919693
-0.69741786	ate it	-0.052919693
-1.4912841	tonight it	-0.052919693
-0.69741786	handled it	-0.052919693
-0.69741786	cut it	-0.052919693
-1.3124113	quit it	-0.052919693
-0.69741786	prove it	-0.052919693
-0.975883	kept it	-0.052919693
-0.69741786	offer it	-0.052919693
-0.69741786	enjoy it	-0.052919693
-0.5466917	cuttin it	-0.052919693
-0.6662079	isnt it	-0.052919693
-0.975883	made it	-0.32805672
-0.975883	pm it	-0.052919693
-0.69741786	wear it	-0.052919693
-0.69741786	explain it	-0.052919693
-0.69741786	repeat it	-0.052919693
-0.69741786	figured it	-0.052919693
-0.69741786	loneliness it	-0.052919693
-1.6674592	<s> but	-0.12544468
-1.1798221	crying but	-0.052919693
-2.1660185	but but	-0.052919693
-2.1960254	on but	-0.052919693
-1.1831603	visible but	-0.052919693
-2.1171877	no but	-0.052919693
-1.3897495	enough but	-0.052919693
-1.9531591	her but	-0.052919693
-1.0098163	voice but	-0.052919693
-1.5797	shrine but	-0.052919693
-1.2424278	sorry but	-0.052919693
-1.8284942	before but	-0.052919693
-0.7149584	manual but	-0.052919693
-1.1831603	happen but	-0.052919693
-0.7149584	strong but	-0.052919693
-1.3929971	thanks but	-0.052919693
-1.0098163	planned but	-0.052919693
-1.0098163	clue but	-0.052919693
-1.3020515	yours but	-0.052919693
-0.7149584	refused but	-0.20156609
-1.4855334	<s> the	-0.10665722
-1.263809	up the	-0.052919663
-1.353844	why the	-0.052919693
-1.0362146	thats the	-0.052919693
-1.766997	when the	-0.052919693
-1.4225696	and the	-0.052919693
-1.1043487	whatever the	-0.052919693
-1.3812945	that the	-0.052919693
-1.3181999	was the	-0.052919663
-1.5710765	had the	-0.052919693
-1.9041971	it the	-0.052919693
-1.4646381	only the	-0.052919693
-1.5529677	does the	-0.052919693
-1.3483515	is the	-0.052919693
-0.80708605	of the	-0.052919693
-1.162655	for the	-0.052919693
-1.341329	long the	-0.052919693
-1.7408546	time the	-0.052919693
-1.604472	or the	-0.052919693
-1.647441	been the	-0.052919693
-1.2019912	by the	-0.052919693
-1.3643432	like the	-0.052919663
-1.3111669	out the	-0.052919693
-1.4201832	ah the	-0.052919693
-1.78533	if the	-0.052919693
-0.8456974	at the	-0.052919663
-1.2732196	reach the	-0.052919693
-1.8780636	what the	-0.052919693
-1.6106365	will the	-0.052919693
-1.7610348	be the	-0.052919693
-0.8669504	from the	-0.052919693
-0.87602925	on the	-0.09046164
-0.76773036	in the	-0.052919693
-1.63529	even the	-0.052919693
-1.5595073	have the	-0.052919693
-1.26029	where the	-0.052919693
-1.2871639	end the	-0.052919693
-1.6827033	there the	-0.052919693
-1.097881	to the	-0.07643169
-1.9373869	you the	-0.052919693
-1.4870548	so the	-0.052919693
-1.7872746	huh the	-0.052919693
-1.7953535	do the	-0.052919693
-1.7500242	youre the	-0.052919693
-1.7091478	were the	-0.20156609
-1.4500062	once the	-0.052919693
-1.2732196	days the	-0.052919693
-0.68757737	approaches the	-0.052919693
-1.3096538	just the	-0.1461697
-1.7614825	with the	-0.052919693
-0.95738494	til the	-0.052919693
-1.4599113	its the	-0.052919663
-1.6033714	get the	-0.052919693
-1.2725646	see the	-0.20156609
-1.6019462	yeah the	-0.20156609
-1.0354536	all the	-0.052919693
-1.0013431	as the	-0.052919663
-1.3248945	about the	-0.052919693
-0.68757737	restoring the	-0.052919693
-1.2732196	mayor the	-0.052919693
-0.68757737	improve the	-0.052919693
-1.3545986	call the	-0.052919693
-0.68757737	technically the	-0.052919693
-1.2019912	use the	-0.052919693
-1.4320983	tell the	-0.052919693
-1.6360047	who the	-0.052919693
-1.63546	know the	-0.052919693
-1.2732196	ugh the	-0.052919693
-1.1043487	round the	-0.052919693
-0.95738494	within the	-0.052919693
-0.68757737	named the	-0.052919693
-1.3846225	because the	-0.052919693
-0.68757737	abandoning the	-0.052919693
-0.95738494	hows the	-0.052919693
-0.95738494	sleep the	-0.052919693
-0.68757737	finish the	-0.052919693
-0.95738494	hit the	-0.052919693
-1.1043487	exactly the	-0.052919693
-1.1003697	over the	-0.052919693
-1.5264981	look the	-0.052919693
-0.7557743	before the	-0.16748804
-0.68757737	gets the	-0.052919693
-1.1201353	watch the	-0.052919693
-0.68757737	during the	-0.052919693
-0.68757737	followed the	-0.052919693
-0.95738494	power the	-0.052919693
-0.37266263	represent the	-0.20156609
-0.68757737	connects the	-0.052919693
-1.1043487	heart the	-0.052919693
-0.5409854	outside the	-0.19653513
-0.68757737	lousy the	-0.052919693
-0.68757737	recognized the	-0.052919693
-0.68757737	remembered the	-0.052919693
-0.68757737	watching the	-0.052919693
-0.68757737	treasure the	-0.052919693
-1.1043487	save the	-0.052919693
-0.68757737	heres the	-0.052919693
-0.68757737	hijack the	-0.052919693
-0.88719326	evacuate the	-0.052919693
-0.68757737	strike the	-0.052919693
-1.2019912	find the	-0.052919693
-0.68757737	confirming the	-0.052919693
-0.68757737	schools the	-0.052919693
-1.2167995	quite the	-0.052919693
-0.68757737	reaching the	-0.052919693
-0.68757737	predict the	-0.052919693
-0.68757737	spent the	-0.052919693
-0.68757737	scaling the	-0.32805672
-0.68757737	upon the	-0.052919693
-0.68757737	stars the	-0.052919693
-2.2103434	<s> only	-0.593502
-2.7781045	the only	-0.052919693
-2.1396134	if only	-0.052919693
-2.3420024	your only	-0.052919693
-0.71874326	comes only	-0.052919693
-1.888184	its only	-0.052919693
-1.6074748	theres only	-0.052919693
-1.8885734	they only	-0.052919693
-2.625764	that thing	-0.052919693
-1.700094	only thing	-0.052919693
-2.4340425	this thing	-0.052919693
-2.1040926	one thing	-0.052919693
-1.5514225	good thing	-0.052919693
-1.4094983	weird thing	-0.052919693
-1.4094983	whole thing	-0.052919693
-3.1872044	<s> does	-0.052919693
-1.481613	why does	-0.052919693
-2.5546963	that does	-0.052919693
-2.5742047	it does	-0.052919693
-2.3816352	this does	-0.052919693
-1.8803928	what does	-0.052919693
-1.8267881	sure does	-0.052919693
-1.8769028	she does	-0.052919693
-2.1465878	uh does	-0.052919693
-1.0154252	ground does	-0.052919693
-1.1899967	many does	-0.052919693
-2.9132202	the last	-0.052919693
-1.8216392	does last	-0.052919693
-2.6688442	of last	-0.052919693
-2.2222536	at last	-0.052919693
-2.218522	<s> is	-0.09046164
-1.9306974	why is	-0.052919693
-1.4532124	when is	-0.052919693
-1.9483712	that is	-0.052919693
-1.3846118	it is	-0.052919663
-1.4874209	thing is	-0.052919693
-1.16276	which is	-0.052919693
-1.4748175	time is	-0.24131943
-1.6495419	someone is	-0.052919693
-1.767252	this is	-0.07643169
-1.362411	reach is	-0.32805672
-1.4007843	what is	-0.08183403
-1.276458	together is	-0.052919693
-2.1214678	me is	-0.052919693
-0.73202974	name is	-0.2757164
-2.0362644	so is	-0.052919693
-1.9341214	today is	-0.052919693
-1.7623041	comet is	-0.052919693
-1.4309049	much is	-0.052919693
-1.6177818	cause is	-0.052919693
-1.5974723	us is	-0.052919693
-1.5764266	people is	-0.052919693
-1.5408026	hour is	-0.052919693
-1.7718222	she is	-0.052919693
-1.8442692	who is	-0.052919693
-1.876678	really is	-0.052919693
-1.6779069	how is	-0.052919693
-0.76964307	cords is	-0.052919693
-1.4309049	area is	-0.052919693
-0.70903254	meal is	-0.052919693
-1.16276	luck is	-0.052919693
-1.362411	times is	-0.052919693
-0.70903254	trigger is	-0.052919693
-1.3684064	union is	-0.052919693
-0.99820817	ahead is	-0.20156609
-1.2826078	landscape is	-0.052919693
-0.70903254	recklessness is	-0.052919693
-0.99820817	hell is	-0.052919693
-0.70903254	interest is	-0.052919693
-1.9053237	<s> a	-0.1152886
-1.4490179	thats a	-0.052919693
-1.9500816	and a	-0.052919693
-1.3577474	was a	-0.10643681
-1.648644	had a	-0.052919693
-1.8403114	it a	-0.052919693
-1.5292054	only a	-0.052919693
-0.9592213	is a	-0.12679736
-1.98723	a a	-0.052919693
-1.3097583	of a	-0.09046164
-1.1852167	for a	-0.052919693
-1.6933695	or a	-0.052919693
-1.7447848	been a	-0.052919693
-1.9272122	this a	-0.052919693
-1.5628797	day a	-0.052919693
-1.583559	like a	-0.052919693
-0.5468658	than a	-0.32805672
-1.8746524	if a	-0.052919693
-1.7131951	what a	-0.10643681
-1.600786	be a	-0.052919693
-1.2970594	from a	-0.052919693
-1.0286512	make a	-0.052919693
-1.3929403	on a	-0.052919663
-1.2222245	in a	-0.052919693
-0.72881	have a	-0.093488514
-1.8331269	well a	-0.052919693
-1.8522991	to a	-0.052919693
-1.1313426	give a	-0.052919693
-0.9764561	keeps a	-0.052919693
-1.6081554	me a	-0.052919693
-1.8618124	youre a	-0.052919693
-1.5081987	once a	-0.052919693
-1.313656	days a	-0.052919693
-0.829958	just a	-0.859293
-1.4896598	with a	-0.052919693
-1.6248497	wait a	-0.16748804
-1.5163518	its a	-0.052919663
-1.7977955	did a	-0.052919693
-1.1313426	totally a	-0.052919693
-1.6764176	as a	-0.052919693
-1.9013814	right a	-0.052919693
-1.7737542	about a	-0.052919693
-0.6977195	create a	-0.052919693
-1.8863719	here a	-0.45299548
-0.9764561	dusk a	-0.052919693
-1.7287785	not a	-0.052919693
-1.313656	also a	-0.052919693
-1.663261	she a	-0.052919693
-0.4930254	take a	-0.22765999
-1.5008755	feel a	-0.052919693
-1.0518912	got a	-0.052919663
-1.5636748	maybe a	-0.052919693
-1.483072	theres a	-0.052919693
-0.9764561	destroyed a	-0.052919693
-1.4332216	because a	-0.20156609
-0.9764561	need a	-0.052919693
-0.9764561	becomes a	-0.052919693
-0.6977195	being a	-0.052919693
-0.6977195	catch a	-0.052919693
-1.5342245	girl a	-0.052919693
-0.6977195	pick a	-0.052919693
-1.313656	times a	-0.052919693
-0.66645	want a	-0.1461697
-1.1313426	means a	-0.052919693
-1.2470729	such a	-0.052919693
-0.9764561	made a	-0.052919693
-0.9764561	became a	-0.052919693
-1.1313426	saying a	-0.052919693
-0.9764561	seen a	-0.052919693
-0.66645	quite a	-0.20156609
-0.6977195	pose a	-0.052919693
-0.6977195	build a	-0.052919693
-0.9764561	forgotten a	-0.052919693
-0.6977195	read a	-0.052919693
-0.6977195	eatin a	-0.052919693
-0.6977195	shedding a	-0.052919693
-2.842971	a sense	-0.052919693
-2.3881946	<s> of	-0.052919693
-1.6253399	some of	-0.052919693
-1.9091518	and of	-0.052919693
-0.69501173	sense of	-0.052919693
-0.675584	out of	-0.09046164
-0.69501173	edge of	-0.052919693
-0.69501173	instead of	-0.052919693
-0.69501173	count of	-0.052919693
-0.30867422	part of	-0.10643681
-0.69501173	sight of	-0.052919693
-1.9292567	have of	-0.052919693
-1.3140706	end of	-0.052919693
-1.5085157	life of	-0.052919693
-1.3876644	one of	-0.052919693
-1.7710645	way of	-0.052919693
-1.3025806	any of	-0.052919693
-1.2267814	lot of	-0.052919693
-0.69501173	citizens of	-0.052919693
-0.69501173	twentieth of	-0.052919693
-1.2388518	month of	-0.052919693
-0.97132576	show of	-0.052919693
-1.3616297	much of	-0.052919693
-1.1240323	fun of	-0.052919693
-1.4489049	off of	-0.052919693
-1.5204216	cause of	-0.052919693
-1.6603968	yeah of	-0.052919693
-1.5467758	all of	-0.052919693
-0.69501173	quality of	-0.052919693
-0.69501173	front of	-0.052919693
-0.69501173	origin of	-0.052919693
-1.3025806	yes of	-0.052919693
-0.69501173	case of	-0.052919693
-1.2267814	memories of	-0.052919693
-0.69501173	interpretation of	-0.052919693
-0.54530144	full of	-0.20156609
-0.69501173	worth of	-0.052919693
-0.69501173	bathroom of	-0.052919693
-1.4198186	because of	-0.052919693
-0.97132576	son of	-0.052919693
-0.69501173	law of	-0.052919693
-1.1240323	both of	-0.052919693
-0.2358677	kind of	-0.052919693
-1.2267814	course of	-0.052919693
-1.1240323	few of	-0.052919693
-0.69501173	sorts of	-0.052919693
-1.1240323	making of	-0.052919693
-1.1240323	sound of	-0.052919693
-1.3025806	side of	-0.052919693
-0.97132576	care of	-0.052919693
-0.69501173	reactions of	-0.052919693
-0.69501173	list of	-0.052919693
-0.54530144	reports of	-0.052919693
-0.69501173	piece of	-0.052919693
-0.8349973	point of	-0.052919693
-1.1240323	relic of	-0.052919693
-0.69501173	flow of	-0.32805672
-0.54530144	most of	-0.052919693
-0.69501173	foot of	-0.052919693
-0.3752578	half of	-0.052919663
-1.1240323	heart of	-0.052919693
-1.2388518	landscape of	-0.052919693
-0.69501173	sketch of	-0.052919693
-0.69501173	hundreds of	-0.052919693
-0.69501173	period of	-0.052919693
-0.97132576	fragment of	-0.052919693
-0.69501173	third of	-0.052919693
-0.69501173	drawing of	-0.052919693
-0.69501173	ahold of	-0.052919693
-0.97132576	charge of	-0.20156609
-0.69501173	sort of	-0.052919693
-0.69501173	theory of	-0.052919693
-0.69501173	story of	-0.052919693
-0.69501173	certain of	-0.052919693
-0.97132576	clear of	-0.052919693
-0.69501173	threat of	-0.052919693
-0.69501173	probability of	-0.052919693
-0.97132576	hands of	-0.052919693
-0.69501173	coincidence of	-0.052919693
-0.69501173	walls of	-0.32805672
-0.69501173	tired of	-0.32805672
-0.69501173	gust of	-0.052919693
-0.69501173	stream of	-0.052919693
-0.69501173	miles of	-0.052919693
-0.69501173	corners of	-0.052919693
-0.69501173	steps of	-0.052919693
-2.7219071	of loss	-0.052919693
-3.1382885	<s> which	-0.052919693
-0.7206397	soul which	-0.052919693
-1.1972622	which lingers	-0.052919693
-2.231183	<s> for	-0.09704671
-1.9126483	thats for	-0.052919693
-1.5499913	again for	-0.052919693
-1.7131541	had for	-0.052919693
-2.1722915	it for	-0.052919693
-1.9845878	but for	-0.052919693
-2.1015708	is for	-0.052919693
-0.705024	lingers for	-0.052919693
-0.30587703	searching for	-0.16748804
-1.8547026	out for	-0.052919693
-2.1122324	what for	-0.052919693
-0.705024	longing for	-0.052919693
-2.0600123	me for	-0.052919693
-2.2240918	you for	-0.052919693
-0.705024	sign for	-0.052919693
-1.5813541	nice for	-0.052919693
-1.5945619	mean for	-0.052919693
-0.9904408	eye for	-0.052919693
-1.9812388	just for	-0.052919693
-0.705024	preparing for	-0.052919693
-1.817921	see for	-0.052919693
-1.9985921	all for	-0.052919693
-1.1514606	term for	-0.052919693
-1.3446505	mayor for	-0.052919693
-1.9682938	here for	-0.052919693
-1.2618335	use for	-0.052919693
-1.1514606	soon for	-0.052919693
-1.6731586	tokyo for	-0.052919693
-0.705024	lounges for	-0.052919693
-1.5230336	date for	-0.052919693
-0.705024	rough for	-0.052919693
-0.9904408	feelings for	-0.052919693
-1.4101816	area for	-0.052919693
-1.4638942	bad for	-0.052919693
-1.4638942	shouldnt for	-0.052919693
-1.2165574	sorry for	-0.052919693
-1.4176401	late for	-0.052919693
-1.4250525	real for	-0.052919693
-0.9904408	live for	-0.052919693
-1.1514606	done for	-0.052919693
-0.7655419	thanks for	-0.20156609
-0.705024	reporting for	-0.052919693
-0.705024	cept for	-0.052919693
-0.9904408	everywhere for	-0.052919693
-0.705024	basics for	-0.052919693
-0.705024	worked for	-0.052919693
-0.705024	gathered for	-0.052919693
-1.1596897	warning for	-0.052919693
-0.705024	hospital for	-0.052919693
-0.705024	weakness for	-0.052919693
-0.705024	applied for	-0.052919693
-0.705024	diet for	-0.052919693
-2.6455092	that long	-0.052919693
-2.7012973	a long	-0.052919693
-2.296928	so long	-0.052919693
-1.8432008	wait long	-0.052919693
-1.7482454	take long	-0.052919693
-0.7193773	deity long	-0.052919693
-2.9527965	<s> time	-0.052919693
-1.8304929	some time	-0.052919693
-1.9690995	and time	-0.052919693
-2.4156427	that time	-0.052919693
-2.5065057	the time	-0.052919693
-2.4236782	a time	-0.052919693
-1.462399	of time	-0.21587153
-1.4646888	long time	-0.052919693
-1.6322663	what time	-0.32805672
-2.3184664	in time	-0.052919693
-1.4798082	one time	-0.052919663
-2.4491088	to time	-0.052919693
-2.1137962	are time	-0.5499055
-1.6627357	still time	-0.052919693
-1.1789072	breakfast time	-0.20156609
-1.3882669	next time	-0.052919693
-2.1073349	with time	-0.32805672
-2.2725582	its time	-0.052919693
-1.3882669	enough time	-0.052919693
-1.3882669	whole time	-0.052919693
-1.0091976	first time	-0.052919693
-2.160949	time afterwards	-0.052919693
-2.0094209	<s> im	-0.093488514
-2.2139723	i im	-0.052919693
-1.4757837	when im	-0.052919663
-2.3771079	and im	-0.052919693
-2.038198	that im	-0.20156609
-2.1731138	but im	-0.052919693
-1.5263039	thing im	-0.052919693
-2.2107587	like im	-0.052919693
-1.581847	ah im	-0.052919693
-2.3388824	what im	-0.052919693
-2.1054506	well im	-0.052919693
-2.0346775	way im	-0.052919693
-1.0703185	cause im	-0.052919693
-2.190044	all im	-0.052919693
-1.3912371	ugh im	-0.052919693
-1.1839147	left im	-0.052919693
-0.7152726	gosh im	-0.052919693
-1.0104359	fragments im	-0.052919693
-0.7152726	ceremony im	-0.052919693
-2.8542385	<s> always	-0.32805672
-2.5858383	and always	-0.052919693
-1.5900874	im always	-0.32805672
-1.1210022	ive always	-0.052919693
-1.87428	would always	-0.052919693
-1.7447102	guys always	-0.052919693
-3.489015	<s> searching	-0.052919693
-2.2075732	im searching	-0.052919693
-1.558589	always searching	-0.1461697
-2.2773538	just searching	-0.052919693
-2.0777898	when something	-0.052919693
-2.2236414	was something	-0.052919693
-1.8247721	for something	-0.32805672
-1.9356515	or something	-0.052919693
-1.0147984	seeing something	-0.20156609
-2.286227	me something	-0.052919693
-1.5950373	do something	-0.052919693
-2.3746877	its something	-0.052919693
-2.0100274	did something	-0.052919693
-0.71747804	encounter something	-0.052919693
-1.9241228	know something	-0.052919693
-1.3124723	trying something	-0.052919693
-2.4718893	<s> or	-0.052919693
-2.5140424	it or	-0.052919693
-1.7136326	more or	-0.20156609
-2.0572283	way or	-0.052919693
-2.1552658	do or	-0.052919693
-1.3073164	tomorrow or	-0.052919693
-1.9271871	town or	-0.052919693
-0.94491744	two or	-0.32805672
-1.0129235	awkward or	-0.052919693
-0.71653146	amnesia or	-0.052919693
-1.3048234	future or	-0.052919693
-1.0129235	rice or	-0.052919693
-1.5953132	tonight or	-0.052919693
-1.0129235	network or	-0.052919693
-0.71653146	nuisance or	-0.052919693
-2.158685	<s> someone	-0.30437404
-2.6068773	that someone	-0.052919693
-1.956415	or someone	-0.052919693
-2.3081336	like someone	-0.052919693
-1.915103	yeah someone	-0.052919693
-2.0538223	about someone	-0.052919693
-1.6074748	theres someone	-0.052919693
-1.313458	met someone	-0.052919693
-2.8129542	<s> ive	-0.052919663
-2.0803668	why ive	-0.052919693
-2.588778	that ive	-0.052919693
-2.2983222	like ive	-0.052919693
-1.4078972	lately ive	-0.052919693
-0.71842664	sec ive	-0.052919693
-1.7342774	maybe ive	-0.052919693
-1.0166814	realize ive	-0.052919693
-0.71842664	honestly ive	-0.052919693
-3.102746	<s> been	-0.052919693
-2.1104932	thats been	-0.052919693
-1.2454048	had been	-0.052919693
-1.8889633	never been	-0.052919693
-1.5388584	always been	-0.052919693
-0.6491694	ive been	-0.052919693
-1.9657315	even been	-0.052919693
-1.7252357	have been	-0.052919693
-2.251338	you been	-0.052919693
-2.3498268	its been	-0.052919693
-0.8739902	hes been	-0.052919663
-0.83378494	youve been	-0.1461697
-1.1853523	takis been	-0.052919693
-0.94571817	has been	-0.1461697
-2.0883436	been consumed	-0.052919693
-1.8286203	has consumed	-0.052919693
-3.0866776	<s> by	-0.20156609
-1.0198382	consumed by	-0.052919693
-2.869755	you by	-0.052919693
-1.4141861	side by	-0.052919693
-1.8828439	<s> this	-0.465749
-1.8834605	and this	-0.052919693
-1.2893903	is this	-0.052919693
-1.571759	of this	-0.12091402
-1.5488062	for this	-0.052919663
-1.2753155	by this	-0.052919693
-1.6567506	like this	-0.052919693
-1.3284668	at this	-0.052919663
-1.1123843	could this	-0.1461697
-1.4913973	say this	-0.052919693
-2.068801	on this	-0.052919693
-1.3839564	in this	-0.13155855
-1.8488625	even this	-0.052919693
-1.1618804	stop this	-0.052919693
-2.2691433	to this	-0.052919693
-0.99760574	eat this	-0.052919693
-1.9308854	today this	-0.052919693
-1.1618804	leaving this	-0.052919693
-0.99760574	til this	-0.052919693
-1.8023335	get this	-0.052919693
-1.8574268	see this	-0.052919693
-1.2124096	all this	-0.10643681
-1.1618804	continue this	-0.052919693
-1.3610187	stand this	-0.052919693
-1.3610187	believe this	-0.052919693
-1.7386868	whats this	-0.052919693
-1.1618804	site this	-0.052919693
-0.7087229	hate this	-0.052919693
-0.99760574	hit this	-0.052919693
-1.435253	through this	-0.052919693
-1.2753155	met this	-0.052919693
-0.7087229	ignore this	-0.052919693
-0.7087229	tree this	-0.052919693
-0.7087229	confused this	-0.052919693
-0.99760574	foresaw this	-0.052919693
-0.99760574	put this	-0.052919693
-0.7087229	predicted this	-0.052919693
-0.7087229	witnessing this	-0.052919693
-0.7087229	writing this	-0.052919693
-0.7087229	spend this	-0.052919693
-2.2075732	im feeling	-0.052919693
-1.887416	this feeling	-0.052919693
-0.72001225	realistic feeling	-0.052919693
-2.2839377	youre feeling	-0.20156609
-3.4308279	<s> ever	-0.052919693
-2.6837137	it ever	-0.052919693
-1.9974258	could ever	-0.052919693
-2.376224	your ever	-0.052919693
-1.928017	as ever	-0.052919693
-3.5562222	<s> since	-0.052919693
-1.4157602	ever since	-0.052919693
-1.1956778	while since	-0.052919693
-1.871616	that day	-0.1461697
-2.7781045	the day	-0.052919693
-2.6523356	a day	-0.052919693
-2.420336	this day	-0.052919693
-1.5011759	one day	-0.052919693
-1.6970699	nice day	-0.052919693
-1.5492729	good day	-0.052919693
-0.71874326	neither day	-0.052919693
-2.842971	a star	-0.052919693
-2.7502973	it fell	-0.052919693
-0.7206397	star fell	-0.052919693
-2.312653	was almost	-0.20156609
-2.5391738	is almost	-0.052919693
-1.7898451	shes almost	-0.052919693
-2.331294	<s> like	-0.052919663
-2.4726486	i like	-0.052919693
-2.1136339	was like	-0.052919693
-1.1743612	almost like	-0.052919693
-1.4526668	words like	-0.052919693
-1.7255863	be like	-0.052919663
-2.0612648	well like	-0.052919693
-2.4600544	you like	-0.052919693
-2.094789	do like	-0.052919693
-2.1072445	youre like	-0.052919693
-1.80304	would like	-0.052919693
-1.6207501	just like	-0.052919693
-0.43720192	looks like	-0.052919693
-1.3877451	not like	-0.052919693
-0.5099561	feel like	-0.052919663
-1.2915922	stuff like	-0.052919693
-1.380929	cafe like	-0.052919693
-1.1743612	round like	-0.052919693
-0.7130784	smells like	-0.052919693
-1.5163072	guy like	-0.052919693
-1.006117	looked like	-0.052919693
-1.006117	yourself like	-0.052919693
-1.006117	ready like	-0.052919693
-1.006117	felt like	-0.20156609
-1.006117	seems like	-0.052919693
-0.7130784	reality like	-0.052919693
-1.7502148	like seeing	-0.20156609
-2.7613394	to seeing	-0.052919693
-2.4401174	that out	-0.052919693
-2.0555108	it out	-0.052919693
-1.7691209	something out	-0.20156609
-2.553886	you out	-0.052919693
-2.0346775	way out	-0.052919693
-2.126274	are out	-0.052919693
-1.3157378	get out	-0.052919693
-0.7152726	dullin out	-0.052919693
-1.0104359	doin out	-0.052919693
-1.0104359	goes out	-0.052919693
-1.581847	help out	-0.052919693
-0.7152726	heading out	-0.052919693
-1.4679066	far out	-0.052919693
-1.3030994	somewhere out	-0.052919693
-0.7152726	lay out	-0.052919693
-0.55690634	watch out	-0.052919693
-0.7152726	head out	-0.052919693
-0.7152726	stargazers out	-0.052919693
-0.7152726	runnin out	-0.052919693
-3.1382885	<s> nothing	-0.20156609
-1.5625914	knew nothing	-0.052919693
-2.510339	and more	-0.052919693
-2.5688343	of more	-0.052919693
-1.0160528	nothing more	-0.20156609
-1.7445444	three more	-0.052919693
-1.4978193	one more	-0.052919693
-2.2272887	just more	-0.052919693
-1.9267207	get more	-0.052919693
-2.1857157	no more	-0.052919693
-1.4048605	little more	-1.0550555
-1.0160528	felt more	-0.052919693
-1.9933813	or less	-0.20156609
-3.1120603	<s> than	-0.20156609
-1.41672	view than	-0.052919693
-0.72033006	fortunate than	-0.052919693
-2.842971	a breathtaking	-0.32805672
-2.6688442	of view	-0.052919693
-0.72001225	breathtaking view	-0.1461697
-1.9993492	our view	-0.052919693
-0.72001225	mystical view	-0.052919693
-2.128443	<s> ah	-0.21394752
-1.3209649	whoa ah	-0.052919693
-2.295022	<s> if	-0.13155855
-2.390047	and if	-0.052919693
-2.4528923	that if	-0.052919693
-2.4738271	it if	-0.052919693
-1.6554512	but if	-0.052919663
-1.5840046	ah if	-0.052919693
-1.8589671	what if	-0.052919663
-1.1463441	even if	-0.12091402
-1.6707021	cause if	-0.052919693
-1.4695245	happened if	-0.052919693
-1.7070771	maybe if	-0.052919693
-1.0110565	cares if	-0.052919693
-1.8350347	sorry if	-0.052919693
-0.715587	wonder if	-0.052919693
-0.715587	alibi if	-0.052919693
-1.3985586	die if	-0.052919693
-1.0110565	hell if	-0.052919693
-0.715587	especially if	-0.052919693
-2.832664	<s> our	-0.052919693
-1.6679337	only our	-0.052919693
-1.7751013	does our	-0.052919693
-1.5818644	at our	-0.052919693
-1.9335324	from our	-0.052919693
-2.2110648	on our	-0.052919693
-2.3437088	in our	-0.20156609
-0.715587	headed our	-0.052919693
-2.1255333	with our	-0.052919693
-1.1816576	continue our	-0.052919693
-1.0110565	within our	-0.052919693
-1.39273	down our	-0.20156609
-1.0110565	behind our	-0.052919693
-1.0110565	duty our	-0.052919693
-0.715587	push our	-0.052919693
-0.715587	beyond our	-0.052919693
-0.715587	follow our	-0.052919693
-0.715587	raise our	-0.052919693
-2.0153031	our voices	-0.052919693
-0.7208597	voices speak	-0.052919693
-2.6076014	<s> at	-0.052919663
-2.0700176	up at	-0.052919693
-2.3295724	that at	-0.052919693
-2.3518462	it at	-0.052919693
-2.106893	but at	-0.052919693
-1.9354075	out at	-0.052919693
-0.71214134	speak at	-0.052919693
-1.716997	be at	-0.32805672
