\data\
ngram 1=1794

\1-grams:
-3.9332278	<unk>
0	<s>
-2.7017038	some
-3.805694	mornings
-1.5419301	i
-3.2759504	wake
-2.4054875	up
-3.2759504	crying
-3.2759504	without
-3.805694	knowing
-3.5897515	why.
-2.3669846	that's
-2.4191198	when
-3.5424666	everything
-3.5897515	happens
-2.5470197	now
-1.8610429	and
-3.5424666	again.
-3.5424666	whatever
-1.8572286	that
-3.1120012	dream
-2.2134137	was
-2.75833	had
-2.4945486	can
-2.6759384	never
-2.7290947	remember
-2.8234627	it.
-2.2310128	but
-1.5049632	the
-2.7017038	only
-3.1120012	thing
-2.8601007	does
-3.3890772	last
-2.0326355	is
-1.6405151	a
-3.805694	sense
-1.8534476	of
-3.805694	loss
-3.5424666	which
-3.805694	lingers
-2.1205945	for
-3.2759504	long
-2.4054875	time
-3.805694	afterwards.
-2.3669846	i'm
-2.9001167	always
-3.2759504	searching
-2.9001167	something
-2.58589	or
-3.5897515	someone.
-2.8601007	i've
-2.5113444	been
-3.5897515	consumed
-3.2759504	by
-2.0159	this
-3.1862848	feeling
-3.3890772	ever
-3.5424666	since
-3.3890772	day.
-3.1120012	day
-3.805694	star
-3.805694	fell.
-1.81047	it
-3.3890772	almost
-2.2400873	like
-3.5424666	seeing
-2.6067128	out
-3.3890772	dream.
-3.5424666	nothing
-2.6516163	more
-3.5897515	less
-3.3890772	than
-3.5424666	breathtaking
-3.2759504	view.
-2.9001167	ah
-2.4191198	if
-2.58589	our
-3.805694	voices
-3.805694	speak
-2.3669846	at
-3.5897515	night
-2.6516163	could
-3.1862848	reach
-3.5424666	very
-3.805694	edge
-3.0485868	world
-3.805694	instead
-3.805694	fading
-3.5897515	into
-3.805694	air
-3.805694	dust.
-2.9932632	then
-1.9407142	what
-2.7017038	will
-3.2759504	words
-2.164529	be
-3.805694	farthest
-2.6285846	from
-3.3890772	probably
-2.6067128	let's
-2.6516163	make
-3.5424666	promise
-3.5897515	fade.
-3.1862848	say
-3.1120012	together
-2.2493556	on
-3.805694	count
-2.7896764	three
-3.3890772	oh.
-3.2759504	told
-3.2759504	part
-3.1120012	every
-3.5424666	wish
-3.805694	heard
-3.3890772	lately
-3.0485868	lost
-3.805694	sight
-3.805694	truth
-2.0560026	in
-3.0485868	those
-3.805694	words.
-2.8234627	can't
-2.4783783	even
-3.5424666	gave
-3.805694	believing.
-2.2048745	have
-3.2759504	reason
-3.805694	moment
-3.805694	rain
-3.3890772	stop
-3.3890772	place
-3.805694	rainbow
-3.5897515	born
-3.805694	dies.
-2.58589	where
-3.3890772	end
-3.1120012	life
-3.5424666	lies
-3.805694	insisting
-2.6759384	there
-3.805694	longing
-3.805694	for.
-2.4477391	one
-2.9441977	we'll
-1.7744927	to
-3.805694	emotions
-3.805694	unexplored
-3.805694	unprecedented.
-2.9441977	high
-3.2759504	five
-3.3890772	love
-3.5897515	we've
-3.2759504	yet
-3.805694	discover
-3.5424666	give
-3.805694	kiss
-3.0485868	time.
-3.805694	dimensions
-3.5897515	keeps
-3.805694	teasing
-2.2989175	me
-3.3890772	keep
-3.2759504	looking
-1.5607044	you
-3.5897515	dear.
-3.805694	sign
-2.1068847	we
-3.0485868	nice
-3.5897515	meet
-2.3430905	my
-2.4627886	way
-3.805694	chasing
-2.9441977	after
-2.1205945	your
-3.5897515	name.
-2.3922703	taki
-2.8234627	taki.
-2.3204427	don't
-2.75833	name
-2.3430905	mitsuha
-3.3890772	sis
-2.156891	are
-3.1120012	doing
-3.3890772	whoa
-3.1120012	they're
-2.2588258	so
-3.805694	realistic
-2.9001167	still
-3.805694	asleep
-3.3890772	breakfast
-3.5424666	hurry
-2.4627886	huh
-2.8234627	wha
-3.805694	whaaat
-2.3430905	do
-2.9441977	wanna
-3.2759504	any
-3.805694	night's
-3.805694	fish
-3.1120012	grandma
-3.5897515	eat
-3.1120012	mornin'
-3.805694	lazy
-3.805694	butt
-2.2493556	you're
-3.805694	slow
-2.6285846	i'll
-3.805694	fix
-3.5897515	tomorrow.
-2.3669846	oh
-3.2759504	lot
-3.5424666	well.
-2.8601007	back
-3.805694	normal
-2.9441977	today.
-2.6516163	were
-3.5424666	crazy
-3.3890772	yesterday.
-2.9001167	mean
-3.805694	attention
-3.805694	citizens
-3.3890772	itomori.
-3.1120012	good
-3.805694	morning
-2.8234627	an
-3.805694	official
-3.5897515	announcement
-2.8234627	itomori
-2.6285846	town
-3.5897515	hall.
-3.805694	regards
-3.805694	mayoral
-3.5897515	election.
-3.5424666	election
-3.805694	held
-3.805694	twentieth
-3.2759504	next
-3.5897515	month.
-3.805694	committee
-2.7017038	would
-3.5897515	remind
-2.9932632	everyone
-3.805694	tha
-2.7896764	comet
-3.805694	comes
-2.9932632	once
-3.5424666	twelve
-3.1862848	hundred
-2.7896764	years
-3.2759504	finally
-3.805694	headed
-3.5424666	visible
-3.5897515	naked
-3.5424666	eye
-3.805694	several
-3.3890772	days
-3.805694	approaches
-3.3890772	earth
-2.1802204	just
-2.331619	with
-3.2759504	him
-3.2759504	already
-2.9932632	okay
-3.805694	adult
-3.805694	matter.
-3.5897515	according
-3.805694	jaxa's
-3.805694	spokesperson
-3.805694	preparing
-3.805694	celestial
-3.5897515	show
-3.805694	millennium.
-2.75833	we're
-3.5424666	leaving
-2.7017038	wait
-3.5897515	'til
-3.3890772	festival
-2.0620463	it's
-2.7017038	gonna
-3.1862848	much
-3.5897515	fun
-3.5897515	study
-3.805694	hard
-3.5424666	saya
-3.1120012	teshi
-2.9441977	come
-2.6759384	get
-3.0485868	off
-3.805694	meanie
-3.0485868	'cause
-3.805694	heavy.
-2.58589	hey
-3.805694	rude
-3.5424666	y'know
-2.8234627	gotta
-3.805694	say.
-2.8234627	two
-3.3890772	great
-3.805694	couple.
-2.309547	no
-2.5470197	see
-3.5424666	actually
-3.805694	bothered
-3.5424666	hair
-3.1120012	yeah.
-3.1120012	happened
-2.5113444	did
-3.5897515	exorcise
-2.309547	all
-3.805694	demons
-3.5897515	somethin'
-3.3890772	totally
-3.805694	possessed
-3.5897515	body
-3.5424666	rest
-3.805694	occult
-3.5897515	nonsense
-3.5897515	mitsuha's
-3.5424666	feelin'
-3.805694	stressed
-3.3890772	enough
-2.7017038	as
-2.4783783	right
-2.9001167	guys
-3.2759504	talking
-2.4331937	about
-3.805694	above
-3.805694	restoring
-3.1862848	town's
-3.805694	fiscal
-3.805694	health
-3.5424666	continue
-3.805694	revitalization
-3.805694	project.
-3.1862848	these
-3.1120012	things
-3.805694	achieved
-3.805694	create
-3.5897515	safe
-3.805694	secure
-3.805694	community.
-3.805694	incumbent
-3.805694	administration
-3.805694	miyamizu's
-3.5424666	another
-3.5424666	term
-3.5897515	anyway.
-3.5424666	hear
-2.9001167	he's
-3.805694	dullin'
-3.805694	pork.
-3.3890772	between
-3.5897515	us.
-3.5897515	miyamizu.
-3.805694	mornin'.
-3.1862848	looks
-3.3890772	mayor
-3.805694	contractor's
-3.805694	kid
-3.1120012	pretty
-3.805694	cozy
-3.5424666	too.
-3.805694	improve
-3.805694	quality
-3.3890772	each
-3.805694	resident.
-3.2759504	stand
-3.5897515	straight
-3.805694	walking
-3.805694	tough
-3.5424666	his
-3.805694	family.
-2.5113444	well
-3.5424666	ya.
-3.805694	awkward.
-3.805694	sucks
-3.2759504	her.
-3.5897515	front
-3.805694	everyone.
-3.5897515	light.
-3.805694	origin
-3.5424666	word
-3.805694	twilight.
-2.9001167	sure
-2.4627886	here
-3.805694	knows
-3.805694	word.
-3.5897515	dusk
-3.805694	neither
-3.805694	nor
-3.805694	night.
-3.805694	border
-3.805694	worlds
-3.805694	blur
-3.5424666	might
-3.805694	encounter
-2.4783783	not
-3.805694	human.
-3.805694	older
-3.0485868	people
-3.2759504	also
-3.1862848	call
-3.5897515	golden
-3.5424666	hour.
-3.1120012	magic
-3.1120012	hour
-3.805694	says.
-3.805694	technically
-3.3890772	same
-3.805694	mostly
-3.805694	photographers
-3.805694	use.
-2.7290947	she
-2.8234627	take
-3.805694	pictures.
-3.1862848	miyamizu
-2.3669846	uh
-2.9932632	yes
-3.1120012	own
-3.805694	don'
-3.1862848	believe
-3.805694	forgot
-3.805694	desk
-3.805694	locker
-3.5897515	plus
-3.805694	worst
-3.805694	case
-3.805694	bedhead
-2.8601007	didn't
-3.805694	ribbon
-3.5424666	either
-2.7896764	yeah
-3.805694	amnesia
-3.5897515	somethin'.
-3.805694	mention
-2.9441977	feel
-3.805694	havin'
-3.5424666	weird
-3.0485868	dreams
-3.805694	lately.
-2.75833	someone
-3.805694	else's
-3.805694	fuzzy.
-3.805694	sec
-2.6285846	got
-3.3890772	memories
-3.805694	previous
-2.9001167	maybe
-3.805694	subconscious
-3.805694	linked
-3.805694	everett
-3.805694	interpretation
-3.805694	multiverse
-3.5424666	full
-3.805694	mouth
-3.5897515	shut
-3.5897515	minute
-2.9932632	tell
-2.3794436	who
-3.805694	wrote
-3.805694	noteboo
-3.805694	k.
-3.1120012	forget
-2.5470197	really
-3.805694	actin'
-2.5113444	little
-3.5897515	funny
-3.5424666	yesterday
-2.6759384	mitsuha.
-2.7017038	what's
-3.5897515	weird.
-3.5897515	fine.
-3.805694	stress.
-2.75833	know
-2.8601007	you've
-3.805694	ritual
-3.1862848	comin'
-3.5424666	soon
-3.805694	don'tcha
-3.2759504	ugh
-3.5897515	anymore
-2.8234627	too
-3.805694	small
-3.805694	ey.
-3.5897515	graduate
-2.5288157	go
-2.9001167	tokyo
-3.805694	blame
-2.75833	you.
-3.805694	nothin'
-3.3890772	town.
-2.8601007	there's
-3.805694	train
-3.805694	stops
-3.805694	hours
-3.805694	stores
-3.5424666	close
-3.5897515	nine
-3.805694	o'
-3.5897515	clock.
-3.805694	bookstores
-3.805694	dentists
-3.805694	cocktail
-3.805694	lounges
-3.5897515	reason.
-3.805694	jobs
-3.1862848	date
-3.805694	able.
-3.3890772	short.
-3.805694	stuff.
-2.4783783	why
-3.1862848	cafe
-3.5424666	hello
-3.5897515	kids
-3.5897515	hi
-3.805694	evenin'
-3.805694	ma'am
-2.8234627	how
-3.805694	cafe.
-3.0485868	went
-3.5897515	home.
-3.805694	rough
-2.7017038	her
-2.9001167	now.
-2.8601007	she's
-3.5897515	center
-3.805694	stage
-3.5424666	all.
-3.3890772	hm
-2.8234627	school
-3.805694	where'd
-3.5897515	talkin'
-3.3890772	future
-3.805694	mh
-3.805694	hm.
-3.805694	dunno.
-2.75833	think
-3.805694	livin'
-3.5897515	y'know.
-3.805694	ever.
-3.805694	doin'.
-3.5897515	try
-3.5897515	yotsuha.
-3.5424666	listen
-3.805694	thread's
-3.805694	voice.
-3.805694	twine
-3.5897515	round
-3.5897515	feelings
-3.805694	start
-3.805694	flowing
-3.805694	thread.
-3.805694	threads
-3.5424666	talk
-3.5897515	telling
-3.805694	focus.
-3.805694	etched
-3.5897515	within
-3.5424666	braided
-3.3890772	cords
-3.5897515	thousand
-3.805694	years'
-3.805694	worth
-3.805694	itomori's
-3.805694	history.
-3.5897515	listen.
-2.9932632	ago
-3.805694	goes.
-3.805694	bathroom
-3.805694	sandal
-3.805694	maker
-3.5424666	mayugoro
-3.805694	yamazaki
-3.805694	caught
-3.5424666	fire
-3.2759504	whole
-3.1862848	area
-3.805694	burned
-3.805694	down.
-3.1862848	shrine
-3.5424666	old
-3.805694	documents
-3.805694	destroyed.
-3.805694	known
-3.805694	mayugoro's
-3.805694	fire.
-2.6759384	they
-3.805694	named
-3.1862848	bad
-3.805694	mayugoro.
-3.805694	meaning
-3.5897515	behind
-3.805694	festivals
-2.9932632	because
-3.3890772	that.
-3.805694	surface
-3.5897515	left.
-3.5897515	gone
-3.1120012	shouldn't
-3.805694	shrine's
-3.805694	duty.
-3.5424666	important
-3.805694	task.
-3.805694	despite
-3.5897515	son
-3.805694	law
-3.5897515	mine
-3.805694	abandoning
-3.5897515	shinto
-3.805694	priesthood
-3.5897515	house
-3.805694	politics
-3.805694	hopeless
-3.5897515	mister
-3.805694	foreman.
-3.5897515	counting
-3.0485868	help
-3.2759504	again
-3.2759504	leave
-2.9932632	me.
-3.1120012	you'll
-3.805694	votes
-3.5897515	kadoiri
-3.5897515	sakagami
-3.805694	districts
-3.805694	guaranteed.
-3.5897515	how's
-3.805694	datin'
-3.5897515	scene
-3.5897515	ain't
-3.5897515	easy
-3.2759504	sure.
-3.805694	smells
-3.805694	corruption
-3.3890772	there.
-3.5897515	need
-3.805694	bottles.
-3.5897515	katsuhiko
-3.5897515	site
-3.805694	weekend.
-3.805694	usin'
-3.5897515	explosives
-3.2759504	better
-3.2759504	up.
-3.805694	grngh.
-2.8234627	guess
-3.5424666	both
-2.9932632	here.
-3.3890772	yotsuha
-3.805694	grown
-3.805694	lookers
-3.5897515	alright.
-3.5424666	their
-3.5897515	mother.
-3.805694	heya
-3.5424666	hey.
-3.805694	world's
-3.805694	oldest
-3.1862848	kind
-3.5424666	sake
-3.805694	chewin'
-3.5897515	rice
-3.805694	spittin'
-3.805694	lettin'
-3.805694	ferment
-3.805694	naturally
-3.5897515	becomes
-3.805694	alcohol.
-3.5424666	kuchikamizake.
-3.805694	gods
-3.805694	appreciate
-3.805694	ma
-3.3890772	course
-3.805694	check
-3.5897515	out.
-3.5897515	i'd
-3.5897515	everybody
-3.805694	embarrassing
-2.9932632	should
-3.805694	cheer
-3.805694	sis.
-3.5897515	cares
-3.5424666	few
-3.1862848	saw
-3.2759504	must
-3.805694	being
-3.805694	teenager.
-3.5897515	sell
-3.5897515	kuchikamizake
-3.805694	move
-3.5897515	bet
-3.805694	sorts
-3.5424666	stuff
-3.805694	photos
-3.5424666	making
-3.805694	videos.
-3.805694	maiden's
-3.805694	buttloads
-3.805694	liquor
-3.805694	laws
-3.805694	problem
-3.5897515	hate
-3.1120012	please
-3.805694	handsome
-3.805694	boy
-3.805694	jackass.
-3.805694	ow
-3.805694	hmm
-3.805694	something's
-3.805694	aaaah
-3.805694	eh
-3.805694	taki'
-3.5897515	turn
-3.805694	cook
-3.5424666	wasn't
-3.805694	sleep
-3.3890772	sorry.
-3.805694	heading
-3.805694	finish
-3.805694	miso.
-3.5424666	late.
-3.805694	seeya.
-3.805694	h
-3.2759504	strange
-3.2759504	tsukasa
-3.3890772	who's
-3.805694	hrm.
-3.805694	uhhh
-3.805694	pee.
-3.3890772	real
-3.805694	daikanyama.
-3.805694	opening
-3.5897515	gig
-3.5897515	w
-3.805694	skip
-3.805694	club
-2.75833	today
-3.805694	catch
-3.805694	movie.
-3.805694	taaaki
-3.805694	noon.
-3.805694	grab
-3.5897515	lunch
-3.805694	ignored
-3.805694	text
-3.805694	mr.
-3.805694	tsukasa.
-3.805694	far.
-3.5897515	second.
-3.5897515	how'd
-3.5897515	wind
-3.5897515	getting
-2.9932632	girl
-3.805694	gal
-3.1862848	guy
-3.805694	fun.
-3.805694	day's
-3.2759504	living
-3.5897515	guy.
-3.5424666	sound
-3.805694	funny.
-3.805694	where's
-3.5897515	seriously
-3.805694	share
-3.805694	croquette
-3.805694	egg
-3.805694	sandwich.
-3.805694	hahahaha
-3.2759504	thank
-3.5897515	hit
-3.5424666	later
-3.5424666	they've
-3.805694	timberwork
-3.805694	intricate.
-3.805694	set
-3.5897515	live
-3.5897515	month
-3.805694	pancakes
-3.805694	cost
-3.805694	decade
-3.3890772	ago.
-3.5897515	hmmm
-3.5424666	late
-3.5897515	work.
-3.5897515	shift
-3.805694	goin'.
-3.5897515	right.
-2.8601007	sorry
-3.5424666	exactly
-3.2759504	work
-3.805694	tables
-3.805694	six
-3.5897515	seven
-3.805694	ten
-3.5897515	waiting
-3.805694	table
-3.5424666	go.
-3.805694	zucchini
-3.805694	tomato
-3.805694	salad
-3.5424666	side
-3.5897515	order
-3.805694	truffles
-3.805694	louder
-3.805694	nightmare
-2.8601007	over
-3.805694	waiter.
-2.9001167	look
-3.805694	toothpick's
-3.805694	ate
-3.5897515	lucky
-3.805694	noticed
-3.805694	did.
-3.2759504	something.
-3.805694	toothpicks
-3.5897515	excuse
-3.5897515	alright
-3.1862848	trying
-3.5897515	care
-3.5897515	this.
-3.1120012	wrong
-3.805694	truly
-3.805694	apologize.
-3.805694	meal
-3.5897515	tonight.
-3.5897515	weren't
-3.805694	hurt
-3.805694	oku
-3.805694	dera
-3.5897515	miss
-3.5897515	okudera.
-2.7290947	before
-3.5424666	luck
-3.5424666	definitely
-3.805694	scamming
-3.805694	handled
-3.805694	manual
-3.1862848	ms.
-3.1862848	okudera
-3.5897515	skirt
-3.5897515	happen
-3.805694	cut
-2.9441977	he
-3.5897515	looked
-3.805694	skirt.
-3.5424666	n
-3.805694	wh
-3.5424666	other
-3.5424666	hold
-3.2759504	won't
-3.805694	long.
-3.5424666	done
-3.805694	ta
-3.805694	da
-3.805694	cuter
-3.2759504	wanted
-3.805694	customer
-3.805694	earlier.
-3.805694	honest
-3.5897515	worried
-3.3890772	aren't
-3.805694	strong
-3.805694	quick
-3.805694	pick
-3.805694	fight.
-3.805694	feminine
-3.5897515	side.
-3.805694	woulda
-3.805694	guessed
-3.805694	seem
-3.5897515	real.
-3.805694	journal.
-3.805694	organized.
-3.805694	lived
-3.3890772	tokyo.
-3.805694	unrequited
-2.9001167	going
-3.5424666	thanks
-3.5424666	ha
-3.805694	huhah
-3.5897515	messing
-3.805694	phone
-3.5424666	mind.
-3.5897515	later.
-3.805694	normal.
-3.2759504	kinda
-3.5897515	cute
-3.805694	uhhhhh.
-3.805694	play
-3.805694	dumb.
-3.805694	bro
-3.805694	code
-3.805694	walked
-3.5897515	home
-3.805694	actually.
-3.2759504	quit
-3.805694	messin'
-3.0485868	around
-3.1120012	us
-3.805694	reporting
-3.805694	duty
-3.805694	slack
-3.5897515	guys.
-3.5424666	touching
-3.5897515	boobies
-3.805694	boobs
-3.805694	everyone's
-3.805694	starin'
-3.805694	posters
-3.3890772	doesn't
-3.3890772	matter
-3.805694	wins
-3.805694	nothin'll
-3.805694	change
-3.805694	'cept
-3.805694	gets
-3.805694	kickback.
-3.805694	shhh
-3.5897515	somebody's
-3.805694	daddy's
-3.805694	dependent
-3.5424666	switching
-3.3890772	places
-3.805694	opened
-3.2759504	eyes
-3.805694	angrily
-3.805694	best
-3.805694	running
-3.805694	fastest
-3.805694	pace
-3.805694	slowly
-3.805694	beginning
-3.5897515	realize
-3.805694	on.
-3.5424666	taki's
-3.2759504	times
-3.5897515	week
-3.5424666	suddenly
-3.805694	randomly
-3.5424666	switch
-3.3890772	somewhere
-3.805694	boonies.
-3.805694	trigger
-3.805694	sleep.
-3.805694	cause
-3.805694	unknown.
-3.805694	hazy
-3.805694	doubt
-3.805694	places.
-3.805694	reactions
-3.805694	prove
-3.5897515	decided
-3.805694	lay
-3.805694	ground
-3.805694	rules
-3.805694	protect
-3.805694	other's
-3.805694	life.
-3.5424666	watch
-3.805694	during
-3.5424666	switches
-3.805694	list
-3.5424666	do.
-3.805694	agreed
-3.5424666	reports
-3.805694	phones
-3.2759504	through
-3.805694	happening.
-3.5897515	cannot
-3.805694	zenzenzense
-3.5897515	everywhere
-3.805694	followed
-3.805694	innocent
-3.805694	laughter
-3.805694	guided
-3.5897515	way.
-3.805694	piece
-3.805694	disappeared
-3.805694	scattered
-3.805694	stare.
-3.805694	basics
-3.0485868	goin'
-3.5897515	body.
-3.805694	worked
-3.805694	money.
-3.805694	braiding
-3.805694	impossible
-3.805694	wasting
-3.805694	money
-3.805694	wonder
-3.805694	push
-3.805694	countless
-3.805694	barrier
-3.805694	beyond
-3.805694	lose.
-3.805694	beat
-3.805694	destiny
-2.9932632	its
-3.805694	game
-3.805694	follow
-3.805694	rules.
-3.805694	tea
-3.805694	relationships
-3.805694	confessing
-3.805694	popular
-3.5424666	yourself
-3.5897515	girlfriend
-3.5897515	anyone
-3.2759504	want
-3.5897515	relationship
-3.805694	sake.
-3.805694	boobies.
-3.5897515	ready
-3.5424666	tiamat
-2.8234627	has
-3.805694	east
-3.805694	west
-3.3890772	point
-3.805694	wearin'
-3.805694	uniform
-3.5424666	god's
-3.5897515	relic
-3.5897515	kept
-3.2759504	far
-3.5897515	away
-3.2759504	know.
-3.805694	famous
-3.805694	hop
-3.5424666	grandma.
-3.805694	careful
-3.5897515	musubi
-3.805694	mu
-3.805694	subi
-3.5424666	used
-3.805694	local
-3.805694	guardian
-3.805694	deity
-3.5424666	means
-3.3890772	union.
-3.805694	profound
-3.5897515	meaning.
-3.805694	tying
-3.805694	strings
-3.3890772	union
-3.805694	connecting
-3.5424666	flow
-3.805694	power.
-3.805694	tied
-3.805694	skill
-3.5424666	god
-3.5897515	represent
-3.805694	itself.
-3.5897515	assemble
-3.805694	shape.
-3.5424666	twist
-3.5424666	tangle
-3.5424666	unravel
-3.5897515	break
-3.5897515	reconnect.
-3.1120012	is.
-3.805694	drink.
-3.5897515	thanks.
-3.805694	whether
-3.5897515	water
-3.5897515	person
-3.805694	joins
-3.805694	soul
-3.805694	offering
-3.3890772	such
-3.805694	custom.
-3.805694	connects
-3.805694	people.
-3.805694	sacred
-3.5897515	shrine.
-3.5424666	ahead
-3.805694	hereafter.
-3.5897515	netherworld.
-3.805694	netherworld
-3.805694	return
-3.5424666	most
-3.805694	offer
-3.805694	foot
-3.805694	relic.
-3.5424666	half
-3.805694	wow
-3.5897515	dreaming
-3.5897515	planned
-3.5424666	agh
-3.805694	aah
-3.805694	goodness.
-3.5897515	nice.
-3.2759504	met
-3.0485868	am
-3.805694	grateful
-3.805694	enjoy
-3.5897515	first
-3.805694	usual
-3.805694	spots
-3.805694	rate
-3.805694	single
-3.5897515	date.
-3.805694	expensive
-3.805694	handpicked
-3.805694	links
-3.805694	below
-3.3890772	ya
-3.805694	wallflower
-3.805694	different
-3.5897515	person.
-3.805694	hungry
-3.5897515	dinner.
-3.5424666	u
-3.805694	crush
-3.5897515	else
-3.5897515	one.
-3.805694	date's
-3.805694	weirdo.
-3.5424666	teshi.
-3.5897515	no.
-3.2759504	comet.
-3.3890772	it'll
-3.5897515	brightest
-3.5897515	seeya
-3.805694	forward
-3.805694	yukata
-3.805694	aren'tcha
-3.805694	cross
-3.805694	sounded
-3.1862848	down
-3.805694	talked
-3.5424666	broke
-3.5424666	heart
-3.805694	assume
-3.805694	boy.
-2.9932632	said
-3.5424666	felt
-3.5424666	cuttin'
-3.5424666	ho
-3.805694	ah.
-3.5424666	number
-3.3890772	currently
-3.1862848	outside
-3.5424666	cellular
-3.805694	network
-3.805694	turned
-3.805694	due
-3.805694	lousy
-3.805694	ended
-3.805694	switch.
-3.805694	thought.
-3.5897515	until
-3.805694	am.
-3.805694	cover
-3.805694	alibi
-3.5424666	dad
-3.805694	asked.
-3.805694	relax
-3.805694	takagi's
-3.805694	shift.
-3.805694	gotch'a
-3.805694	covered
-3.805694	owe
-3.805694	ignore
-3.805694	pull
-3.805694	catfish
-3.805694	online
-3.805694	complicated.
-3.805694	dating
-3.5897515	acting
-3.805694	awfully
-3.805694	fishy
-3.805694	keeping
-3.805694	babysitter
-3.5897515	stopped
-3.805694	calls
-3.805694	connected
-3.805694	texts
-3.805694	through.
-3.3890772	landscape
-3.5897515	clue
-3.805694	contact
-3.805694	terrible
-3.805694	tour
-3.805694	guide
-3.805694	search.
-3.805694	aww
-3.805694	moved
-3.805694	awww
-3.805694	cause.
-3.3890772	haven't
-3.805694	anything
-3.5424666	takayama
-3.5424666	ramen.
-3.805694	same.
-3.805694	orders
-3.1862848	tonight
-3.805694	close.
-3.1862848	let
-3.5897515	look.
-3.5897515	k
-3.805694	barking
-3.805694	tree
-3.805694	sketch
-3.3890772	isn't
-3.5897515	drawn
-3.805694	hon
-3.805694	takes
-3.5897515	back.
-3.805694	husband
-3.805694	raised
-3.805694	nearby
-3.805694	confused
-3.805694	else.
-3.805694	didn't.
-3.805694	place.
-3.805694	schoolyard
-3.805694	mountains
-3.805694	could.
-3.5424666	disaster
-3.805694	hundreds
-3.5897515	died.
-3.5424666	died
-3.805694	memos
-3.805694	wrote.
-3.805694	fading.
-3.805694	orbital
-3.805694	period
-3.3890772	made
-3.805694	approach
-3.805694	october.
-3.5897515	nobody
-3.5897515	foresaw
-3.5424666	nucleus
-3.5424666	split
-3.805694	perigee.
-3.5897515	fragment
-3.5897515	became
-3.5424666	meteor
-3.805694	struck
-3.805694	japan.
-3.805694	autumn
-3.5897515	festival.
-3.5897515	impact
-3.5897515	eight
-3.5897515	fourty
-3.5897515	pm
-3.805694	fell
-3.805694	gathered
-3.805694	third
-3.805694	population
-3.5897515	lives
-3.805694	anymore.
-3.805694	teshigawara
-3.805694	sayaka.
-3.805694	weeks
-3.5897515	able
-3.5897515	sounds
-3.805694	lively
-3.805694	room
-3.5897515	problem.
-3.805694	reading
-3.5897515	articles
-3.805694	newspapers
-3.805694	magazines
-3.805694	random.
-3.5897515	seems
-3.805694	obsessive.
-3.805694	smoke
-3.5897515	point.
-3.5424666	saying
-3.805694	recently.
-3.805694	nicer
-3.805694	frantic.
-3.805694	cute.
-3.805694	although
-3.805694	sounding.
-3.805694	fact
-3.805694	remains
-3.805694	changed.
-3.805694	recognized
-3.805694	unconsciously
-3.805694	remembered
-3.805694	news
-3.805694	ghost
-3.5897515	remember.
-3.805694	bath.
-3.805694	um
-3.805694	things.
-3.805694	cords.
-3.805694	pretty.
-3.805694	band
-3.805694	wrist.
-3.805694	so.
-3.805694	somebody
-3.805694	wear
-3.805694	sometimes
-3.805694	charm.
-3.805694	bath
-3.805694	wait.
-3.805694	makes
-3.805694	connect
-3.805694	bento
-3.805694	drawing
-3.805694	job.
-3.805694	shape
-3.805694	yotsuha's
-3.805694	mine.
-3.805694	switched
-3.805694	past.
-3.805694	tangled
-3.805694	somehow.
-3.805694	true
-3.805694	unraveled
-3.805694	chance.
-3.805694	ngh
-3.805694	hh
-3.805694	name's
-3.805694	treasures.
-3.805694	big
-3.5424666	sister
-3.805694	dears
-3.805694	mommy
-3.5424666	coming
-3.5897515	couldn't
-3.805694	ahold
-3.5424666	charge
-3.805694	loved
-3.805694	futaba
-3.805694	girls.
-3.805694	starting
-3.5424666	mind
-3.805694	favor
-3.5897515	strikes
-3.3890772	run
-3.5897515	alive
-3.805694	boo
-3.5897515	ungh
-3.805694	head
-3.805694	stargazers
-3.805694	perigee
-3.805694	maximum
-3.805694	brightness
-3.805694	viewed
-3.805694	earth's
-3.805694	left
-3.0485868	knew
-3.805694	watching
-3.805694	behaving
-3.805694	stirred
-3.805694	young
-3.5897515	myself.
-3.805694	though
-3.5897515	faded
-3.805694	treasure
-3.805694	experience.
-3.805694	eventually
-3.805694	fade
-3.5424666	away.
-3.805694	similar
-3.5424666	myself
-3.5897515	fall
-3.1862848	die
-3.5897515	nobody's
-3.805694	expect
-3.2759504	them
-3.805694	what'd
-3.805694	haircut
-3.805694	nevermind
-3.5424666	save
-3.805694	sort
-3.805694	heh
-3.3890772	warning
-3.5424666	system
-3.805694	speakers
-3.805694	niiiice
-3.5424666	job
-3.805694	sittin'
-3.805694	wrong.
-3.805694	shyyy
-3.805694	proper
-3.805694	t
-3.805694	hahahahaha
-3.805694	gentleman.
-3.805694	bought
-3.805694	snacks
-3.805694	here's
-3.805694	change.
-3.805694	trouble.
-3.805694	oughta
-3.805694	gettin'
-3.805694	paid.
-3.805694	complaining.
-3.805694	wha'dcha
-3.3890772	evacuation
-3.5897515	plan
-3.805694	bomb
-3.805694	gel
-3.5424666	use
-3.805694	construction
-3.805694	storage
-3.805694	site.
-3.805694	startup
-3.805694	frequency
-3.805694	hijack
-3.805694	easily
-3.1862848	broadcast
-3.0485868	evacuate
-3.805694	school.
-3.805694	crime
-3.805694	saya.
-3.805694	club.
-3.805694	explosives.
-3.5424666	while
-3.805694	mayor.
-3.805694	order's
-3.5897515	hall
-3.805694	daughter
-3.5424666	convince
-3.805694	him.
-3.805694	perfect
-3.5897515	fine
-3.805694	other.
-3.805694	theory
-3.3890772	yours
-3.805694	theories
-3.805694	based
-3.805694	reality.
-3.805694	story
-3.805694	lake
-3.805694	formed
-3.805694	crater
-3.5897515	least
-3.5897515	mitsuha'
-3.5424666	comet's
-3.805694	strike
-3.805694	dare
-3.805694	spout
-3.5897515	serious
-3.805694	sick
-3.805694	recklessness
-3.805694	trait.
-3.805694	car
-3.805694	city
-3.805694	hospital
-3.805694	examination.
-3.805694	discussion
-3.5897515	seen
-3.805694	doctor.
-3.5897515	ba
-3.5897515	bye
-3.805694	step
-3.805694	stone
-3.805694	friends
-3.805694	fault
-3.805694	dark
-2.9932632	stay
-3.5897515	man
-3.805694	bike
-3.805694	gosh
-3.805694	doin'
-3.805694	hours.
-3.805694	boyfriend
-3.805694	nuisance
-3.805694	surprise
-3.5897515	network.
-3.805694	annoy
-3.805694	awkward
-3.805694	he'd
-3.805694	glad
-3.805694	meet.
-3.805694	certain
-3.805694	of.
-3.805694	'scuse
-3.805694	girl.
-3.5897515	yotsuya.
-3.805694	clear
-3.805694	doors.
-3.805694	egh
-3.805694	showed
-3.805694	inside
-3.805694	voice
-3.3890772	came
-3.5897515	drank
-3.805694	stupid
-3.805694	pervert
-3.5424666	many
-3.805694	issue
-3.805694	visited
-3.805694	were.
-3.805694	whaddya
-3.805694	bad.
-3.805694	lyin'
-3.805694	busted
-3.805694	coming.
-3.805694	worry.
-3.805694	best.
-3.805694	over.
-3.5897515	write
-3.5897515	names.
-3.805694	planning
-3.805694	wherever
-3.5424666	swear
-3.3890772	find
-3.805694	what.
-3.805694	precious
-3.805694	heck
-3.805694	breakin'
-3.805694	bike.
-3.805694	explain
-3.805694	eyes.
-3.805694	settled
-3.5424666	then.
-3.805694	officially
-3.805694	criminals.
-3.805694	power
-3.805694	goes
-3.5897515	emergency
-3.805694	generator
-3.805694	kick
-3.805694	equipment
-3.805694	does.
-3.805694	scared
-3.805694	repeat
-3.805694	woo
-3.805694	hoo
-3.805694	aw
-3.805694	nuts
-3.5897515	hell
-3.805694	oooh
-3.805694	loud
-3.5897515	explosion
-3.805694	substation
-3.5897515	wildfires
-3.805694	possible
-3.805694	threat
-3.805694	explosions
-3.3890772	residents
-3.805694	followin'
-3.5897515	areas
-3.805694	immediately.
-3.5424666	district.
-3.805694	district
-3.805694	honey
-3.805694	miyamori
-3.805694	oyazawa
-3.5897515	wildfire
-3.805694	outta
-3.805694	workin'
-3.805694	runnin'
-3.805694	started
-3.805694	firefighters
-3.805694	terrorists
-3.805694	attack
-3.805694	chubu
-3.805694	electric
-3.805694	checking.
-3.805694	update
-3.805694	immediately
-3.805694	located
-3.805694	source
-3.805694	sensor
-3.805694	station
-3.805694	called
-3.805694	following
-3.805694	thinking
-3.805694	natori
-3.805694	confirming
-3.805694	accident.
-3.805694	instruct
-3.805694	remain
-3.805694	calm
-3.805694	further
-3.805694	notice.
-3.5897515	put
-3.805694	standby.
-3.805694	school's
-3.805694	end.
-3.805694	splittin'
-3.5897515	apart
-3.805694	large
-3.805694	parts
-3.805694	meteors
-3.805694	falling
-3.805694	predicted
-3.3890772	quite
-3.805694	mystical
-3.805694	view
-3.805694	splitting
-3.805694	roche
-3.805694	limit
-3.805694	itself
-3.805694	must've
-3.805694	structural
-3.805694	weakness
-3.805694	happen.
-3.805694	shoemaker
-3.805694	levy
-3.805694	collided
-3.805694	jupiter
-3.805694	nineteen
-3.805694	ninety
-3.805694	four.
-3.805694	twenty
-3.5897515	fragments
-3.805694	likely
-3.805694	burn
-3.805694	reaching
-3.805694	ground.
-3.805694	pose
-3.805694	danger
-3.805694	probability
-3.805694	landing
-3.805694	populated
-3.805694	small.
-3.805694	development.
-3.805694	predict
-3.805694	trajectory
-3.805694	witnessing
-3.805694	spectacle
-3.805694	unassisted
-3.805694	bare
-3.805694	age
-3.805694	fortunate
-3.805694	precious.
-3.805694	argh
-3.805694	writing
-3.5897515	tomorrow
-3.805694	fate
-3.805694	extend
-3.5897515	hands
-3.805694	breathe
-3.805694	raise
-3.805694	timeless
-3.805694	land
-3.805694	reach.
-3.805694	second
-3.805694	sideways
-3.805694	tick
-3.805694	tock.
-3.5897515	hope
-3.805694	forever
-3.805694	spend
-3.805694	doors
-3.805694	closing.
-3.805694	careful.
-3.805694	applied
-3.805694	position
-3.5897515	landscapes
-3.805694	build
-3.805694	city's
-3.805694	vanish
-3.805694	warm
-3.805694	peoples'
-3.805694	hearts.
-3.805694	counting.
-3.805694	promising.
-3.805694	asked
-3.5897515	suit
-3.805694	offers.
-3.805694	hunting
-3.805694	though.
-3.805694	killing
-3.805694	chances.
-3.805694	sudden
-3.805694	figured
-3.805694	face.
-3.805694	heh.
-3.5897515	forgotten
-3.805694	lot.
-3.805694	either.
-3.805694	argued.
-3.805694	spent
-3.805694	alone
-3.805694	mountain.
-3.805694	found
-3.805694	strangely
-3.805694	incident
-3.805694	involving
-3.805694	destroyed
-3.805694	miraculously
-3.805694	unhurt.
-3.805694	holding
-3.805694	drill
-3.805694	zone.
-3.805694	sheer
-3.805694	coincidence
-3.805694	sparked
-3.805694	various
-3.805694	conspiracy
-3.805694	theories.
-3.805694	read
-3.805694	obsessed.
-3.805694	interest
-3.805694	mystery
-3.805694	anybody
-3.805694	enough.
-3.805694	happiness
-3.805694	searching.
-3.805694	bridal
-3.805694	fair.
-3.805694	weddin'
-3.805694	married
-3.805694	chapel
-3.805694	reminds
-3.805694	shave
-3.805694	ceremony
-3.805694	diet
-3.805694	says
-3.805694	eatin'
-3.805694	cake
-3.2759504	longer
-3.805694	chest
-3.805694	tight
-3.0485868	more.
-3.3890772	stick
-3.3890772	bit
-3.3890772	longer.
-3.2759504	fliers
-3.5424666	scaling
-3.5424666	walls
-3.5424666	climber
-3.5424666	tired
-3.3890772	playing
-3.3890772	hide
-3.3890772	seek
-3.3890772	dead
-3.805694	hand
-3.805694	reached
-3.5897515	showy
-3.805694	crier.
-3.2759504	tears
-3.805694	drier.
-3.5897515	wipe
-3.5897515	dry
-3.5897515	refused
-3.5897515	pouring
-3.5897515	face
-3.5424666	happy
-3.5424666	smiling
-3.5897515	lonely.
-3.5897515	has.
-3.805694	thought
-3.5897515	ask
-3.805694	sorrowful
-3.805694	gust
-3.805694	blew
-3.805694	loneliness
-3.805694	carried
-3.805694	breeze
-3.805694	sky
-3.805694	shedding
-3.805694	stream
-3.805694	miles
-3.805694	blue
-3.805694	clear.
-3.805694	speeches
-3.805694	father
-3.805694	despair.
-3.805694	somehow
-3.805694	warmth
-3.805694	comfort
-3.805694	smile
-3.805694	dreams.
-3.805694	honestly
-3.805694	copied
-3.805694	upon
-3.805694	stars
-3.805694	toys
-3.805694	adored.
-3.805694	rollin'
-3.805694	'round
-3.805694	corners
-3.805694	floor.
-3.805694	counted
-3.805694	someday
-3.805694	trade
-3.805694	class
-3.805694	waved
-3.805694	new
-3.805694	especially
-3.5897515	wide
-3.805694	surely
-3.805694	august
-3.805694	summer
-3.805694	break.
-3.805694	santa
-3.805694	claus
-3.805694	glee.
-3.805694	dashing
-3.805694	steps
-3.805694	short
-3.805694	crier
-3.805694	drier
-3.805694	lonely

\end\
